{
    "hidden_layer_0": {
        "biases": [
            0.049820804834383246,
            0.24787711382575878,
            0.32735399772696633,
            -0.020920444210029886,
            0.30269966570652235,
            -0.1540085799733511,
            0.22595372914540565,
            0.6051478632424616,
            0.12683244910180425,
            -0.003234578373507337
        ],
        "weights": [
            [
                0.009378722562230116,
                0.03477609175629633,
                0.03615796788440453,
                0.035077722611895824,
                0.012481818242982091,
                -0.011679211148302927,
                -0.02045209335821574,
                -0.04477875153280918,
                -0.022965182235471136,
                -0.0022561644203434802,
                0.0315338033554183,
                -0.0020226111132580424,
                -0.008613216653702394,
                0.03891220178100467,
                -0.016304934146912926,
                0.014972642063899576,
                -0.01330961462949673,
                0.04617964425868088,
                -0.03633005771493534,
                0.03738445785764482,
                -0.0026659905301364556,
                0.03039657625084239,
                0.0020685379129405726,
                0.01806956162800829,
                0.02228726344406847,
                0.008285250097510431,
                0.003775266162984056,
                0.026124122726482173,
                -0.039809343403407874,
                -0.0026667600056190857,
                -0.03168521802412019,
                0.023932350045999536,
                -0.0286253182065991,
                -0.03681556364187116,
                -0.011782633142933945,
                -0.027385792912123792,
                -0.026971185638906797,
                -0.011226817006738705,
                0.055756226621719446,
                0.010162531687317356,
                0.041319456306624605,
                0.059820833884690304,
                -0.06372880865295762,
                0.005948368277980129,
                0.014778806156536702,
                -0.039668989729466406,
                -0.017060401002686763,
                0.02400954965609416,
                0.008143006576330663,
                -0.013382323390099626,
                -0.036636795971426876,
                0.014449884323824512,
                0.04636087723970502,
                0.015434152948589984,
                0.013643006837396006,
                0.0500328116550262,
                0.008268132150593993,
                -0.008650078865399521,
                -0.0025661629082475287,
                0.012671581305287545,
                -0.01640625713266782,
                0.01769206957456876,
                -0.017875416994036823,
                0.042469708161696554,
                0.05914567686938294,
                0.05935702831405014,
                -0.020834276833991132,
                0.067668188869895,
                0.09308056874718837,
                0.10628065652400887,
                -0.04953717555866446,
                -0.14300669926003834,
                -0.04438395621917745,
                -0.03193196304791197,
                -0.07467542018761603,
                -0.026498034747018877,
                0.033631862662508824,
                -0.041287032949551106,
                -0.011792878024986856,
                0.029504602431633758,
                0.055761757504134944,
                0.04886429055231505,
                -0.028605284272742226,
                0.006585069866860881,
                0.03688092841649345,
                0.0009060018797610453,
                0.041574541162997414,
                0.04296127061589973,
                -0.0420672316194802,
                -0.0334658235920029,
                -0.06442063457978146,
                0.047625691201444914,
                0.062496794009529975,
                0.14432648197318948,
                0.1373566117433594,
                0.21711399515381652,
                0.12692292907800526,
                0.10972240067901477,
                0.045645316602022326,
                -0.04770304349283252,
                0.14514047614549655,
                0.029656587321735303,
                -0.0701659830412064,
                0.01297451551081795,
                -0.03672484492141752,
                -0.10710947316192422,
                -0.018641719936607227,
                0.02963510767384457,
                0.10071516886079246,
                0.03587464910176437,
                -0.004844038112398733,
                0.04834296367331183,
                -0.0387694617086243,
                0.026973467272501293,
                -0.010825972024359774,
                0.018448464863144803,
                -0.0306991834842026,
                -0.006706792450784825,
                0.08147727779322675,
                0.09447878523632297,
                0.15921935759178968,
                0.14574730340039518,
                0.10486380720083703,
                0.16659049151026176,
                0.10712417233978293,
                0.10641662739193833,
                0.0031570613049320176,
                -0.0528926274502966,
                0.051323193765381456,
                0.030066338733021038,
                -0.05693739331458615,
                -0.10165329209639674,
                -0.12711715157881956,
                -0.14126053381308226,
                -0.1602478231641589,
                -0.1266281833419057,
                -0.11521707941619201,
                0.030661532025791378,
                -0.023080565204926507,
                -0.026181138241766516,
                -0.036237818111173555,
                -0.04068289098419122,
                0.04998281672452745,
                -0.02258251673347449,
                -0.00386807658304741,
                0.010953427504359799,
                0.037996804563925735,
                0.1583099982678135,
                0.14762325836820744,
                0.06506653199724163,
                0.13003689659332754,
                -0.030957984305151807,
                0.12045141206656838,
                0.26505746192715596,
                0.03044629859713638,
                0.21333518415524702,
                0.2679741675935352,
                0.27906462919114083,
                0.05704975107063754,
                0.27553211725671006,
                -0.002563060199916466,
                -0.0017800618296316924,
                -0.1673268187947491,
                -0.19836927437568724,
                -0.15206533810573422,
                -0.10648627695758078,
                0.007042298390682581,
                0.047756655408394265,
                0.025253737639641914,
                -0.01622268972638322,
                3.980518017916916e-05,
                -0.02822429558053136,
                -0.0489976822126758,
                -0.11131431003941565,
                -0.010576952995751553,
                -0.04973122847863014,
                -0.08659719951362581,
                -0.16205314497171472,
                -0.08674427114063661,
                -0.14533983202937367,
                -0.06897050765336474,
                0.10632746788227873,
                0.016048363989747485,
                0.08568154747337801,
                0.1736187407461258,
                0.09099471819845435,
                0.06490005136541917,
                -0.04455355519582214,
                -0.07343725139464816,
                -0.08873966206545805,
                -0.15246471148534033,
                -0.2888639705915239,
                -0.3437602130440091,
                -0.14482507857300278,
                -0.05624295948431393,
                0.048344765419965394,
                0.018237768229200625,
                -0.041249031992304744,
                -0.022037342686625234,
                -0.003833450698552214,
                0.02449875986834179,
                -0.005517707300075438,
                0.028880795957185443,
                -0.04965757434712176,
                -0.007342838965190751,
                0.01024462778877256,
                -0.2171017993052332,
                -0.04058810979555881,
                -0.1680229773209745,
                0.11637616829085093,
                -0.010533379486693898,
                0.0024413984862177,
                0.016926870293198167,
                -0.12990058806834634,
                -0.010587242105146428,
                0.0367213583720427,
                -0.21829123950263427,
                -0.08025796645701011,
                0.035351403266124196,
                -0.10003470833047638,
                -0.3093945060650072,
                -0.1740876608942295,
                -0.053092779207675696,
                0.039940489619705866,
                0.019763231807326132,
                0.004784678978018532,
                0.011566255424947805,
                0.005126902453851256,
                -0.1290470750991896,
                0.004603836950894298,
                0.015139690312199507,
                -0.03178296438598348,
                -0.11522562128801356,
                -0.1509827611231363,
                -0.07257658773600789,
                -0.060771341994271005,
                -0.03477383635747674,
                -0.22670515772551644,
                0.12533082561350614,
                0.40324764268984375,
                0.17004672469941887,
                0.12349806767998828,
                -0.133005316212469,
                -0.08305915820095079,
                -0.07694706010046513,
                0.025306464510428846,
                0.09088398710411996,
                0.030501669433490124,
                -0.33426264554620433,
                -0.3017451145930618,
                -0.043881211337782514,
                -0.05240485158125354,
                0.024950185783018726,
                -0.041426313879491666,
                -0.05396825678230101,
                -0.0765035475190966,
                -0.1443937608188738,
                -0.025449778470941,
                -0.22008788624264392,
                -0.18743660265313464,
                -0.1752137773413794,
                -0.026593308981708905,
                0.03831352532329252,
                -0.07033658695309614,
                -0.033221450143888484,
                -0.14420697531937632,
                0.13095660931233752,
                0.19354557457594154,
                0.08365804802155068,
                0.052712681943434765,
                -0.03911058022512335,
                0.024799469648276944,
                -0.03179277387246821,
                -0.04342255320018633,
                0.04174008951265936,
                -0.0320873460277685,
                -0.2499701067019521,
                -0.2830616820473277,
                -0.06520044151291868,
                -0.004229107271695789,
                0.03480481378877167,
                -0.031294791551501645,
                0.006911397349665001,
                -0.06270414492886094,
                -0.04354466176430567,
                -0.021098755855719104,
                -0.17196606462429348,
                -0.13723799680074647,
                -0.1586284710620584,
                -0.04439565531323682,
                -0.031629813289709444,
                -0.11176135444783959,
                -0.2593751814365827,
                -0.30279517978564474,
                -0.10057663837926957,
                -0.10104702367652124,
                0.22313677650335345,
                0.16712422472070895,
                0.15793834383221653,
                0.149910771680642,
                0.07985492119453212,
                -0.05704789449278805,
                -0.022532182024001875,
                0.0018971175772674455,
                -0.1310762800131335,
                -0.2323197831398631,
                -0.0761106284145046,
                0.04310724720562124,
                -0.049098626219494915,
                0.0016440990082610748,
                -0.034825389533051275,
                0.004306311379121122,
                -0.15972267076507482,
                -0.21358066632691972,
                -0.3900729570645571,
                -0.39561137436378035,
                -0.19167295311186375,
                -0.2312071037111584,
                -0.25686356602888183,
                -0.23236907108091776,
                -0.25742285163391254,
                -0.2681949883206497,
                -0.5550405240151322,
                -0.5859285609326443,
                -0.21006148009814485,
                -0.23000197692397445,
                -0.0354222035775179,
                0.1759097321023898,
                0.1398619590395493,
                0.053549273892685816,
                0.24141431409021202,
                0.07262913000450599,
                0.04443680312592738,
                -0.2150098454168477,
                -0.027344119364771928,
                0.013796595678025688,
                -0.032489803620180766,
                -0.04958849537366708,
                -0.06384619817327052,
                0.020171247693689984,
                -0.2800789280320653,
                -0.3958278276137937,
                -0.4776171675450954,
                -0.4069160048661623,
                -0.2136403804302072,
                -0.403888915810977,
                -0.3695784119343692,
                -0.2837101473161382,
                -0.055659905307658644,
                -0.21494461696359957,
                -0.4485156220774987,
                -0.447761639402837,
                -0.13197196299218977,
                -0.17589177345261622,
                -0.36267803288925526,
                -0.03863158196668257,
                -0.0422679196355522,
                -0.04114388727616865,
                0.18965645005626214,
                0.24598189177234167,
                0.22584145999448274,
                -0.01854668612629236,
                -0.08403245576392694,
                0.03791951572596521,
                -0.04212621530289704,
                0.019606319985539813,
                0.025556279490373614,
                -0.0475841795764557,
                -0.2662490786938282,
                -0.37291077238146003,
                -0.30202623780920845,
                -0.2014627543081761,
                -0.307091782047346,
                -0.26193507975210006,
                -0.046736249091242243,
                -0.08271980886387864,
                -0.011029786618730462,
                -0.15026012713324188,
                -0.2240459164456768,
                -0.3727132909703067,
                -0.21639283882711105,
                -0.13019363040470283,
                -0.2580088070072344,
                -0.33604916274728397,
                -0.3427756017439382,
                0.01182802204461947,
                -0.018287258275236265,
                0.3076608685002425,
                0.2846225230037775,
                0.09278867651144744,
                0.07373285157041402,
                0.011171084568167624,
                0.02285448781491259,
                0.018857671538639615,
                -0.03165314732589598,
                -0.07624510340161075,
                -0.1787452425813578,
                -0.15700159625434107,
                0.0005921398058104404,
                0.2032019163818032,
                0.1473802108961853,
                0.28503688974542957,
                0.21347496123569293,
                0.20256003358236133,
                -0.0022783393758061795,
                -0.08557261568277458,
                -0.18130955560428447,
                -0.3799326190605537,
                -0.15222561578579694,
                -0.2778580367847994,
                -0.09642458253959969,
                -0.30801570690060187,
                -0.03411170993891847,
                -0.003548885982477219,
                0.03412581202880473,
                0.24469376826962502,
                0.11235306535989842,
                0.12633681527969143,
                0.18500099314044233,
                -0.02007116785389534,
                -0.01274318305817834,
                -0.04617359079154048,
                -0.023175044229539324,
                -0.015924358297403955,
                0.06155918998150789,
                0.2856324770209299,
                0.3183114540603741,
                0.3638326583760228,
                0.2320661555944894,
                0.2080667983951205,
                0.26895701087667545,
                -0.027793282189003347,
                -0.057333471611025935,
                -0.03825265966869294,
                -0.22770647804018632,
                -0.1845105956627642,
                -0.15933321236863865,
                -0.11440137046195946,
                -0.19920946306391324,
                -0.18798949393704603,
                0.024793886833988154,
                0.10040209072382499,
                -0.08373455385161815,
                0.12079888386063008,
                0.13972175778723372,
                0.26281414920565943,
                0.11651438212615524,
                0.0032995295502001366,
                0.01991430995285478,
                0.040192976366868284,
                -0.023056560011134243,
                -0.056108171901115826,
                0.031239798203390075,
                0.3626377478621706,
                0.5065266713632205,
                0.28347379837985887,
                0.20599192063481714,
                0.31443090993862677,
                0.24307138898979816,
                0.16124048480264594,
                0.2218763811225597,
                -0.03438232948488557,
                -0.19178890060745246,
                -0.0599394220493344,
                -0.13510871349815565,
                0.0415179624536005,
                -0.008967474749253175,
                0.32666619949806613,
                0.06084523683454109,
                0.12546219562303426,
                0.11193746074634804,
                0.15667304077450644,
                0.20543861923638085,
                0.3094225931797569,
                0.09758157739887505,
                -0.026903664746101907,
                -0.03547359795844427,
                -0.0373502824151502,
                0.04641010796034593,
                -0.009051724099845053,
                0.09688904324677577,
                0.3661459013960243,
                0.29121657001533013,
                0.18670219981622102,
                0.27034407928122384,
                0.13303115710385932,
                0.295468741436324,
                0.1702739354003624,
                0.13161572632698149,
                -0.045737788048424585,
                0.027779702312763346,
                0.08274117533335448,
                0.00024973369716753917,
                0.10677798012068758,
                0.14144417605754098,
                0.09727273534883923,
                0.04156065697412713,
                -0.084492856964415,
                0.12515907822380648,
                0.274971275593153,
                0.28915034772051373,
                0.38223845901476766,
                -0.010365299037228088,
                0.02091013527232167,
                -0.017223559934457032,
                0.04716459618207797,
                -0.04471623454579346,
                -0.03696936854272663,
                0.1413152654744773,
                0.3660546777631447,
                0.1329636587823003,
                0.19937112060462017,
                0.2836902077879018,
                0.09424254759045836,
                0.27504750780119647,
                0.15064310465284986,
                0.31801504592430796,
                -0.09401897379262672,
                0.06671344338292019,
                -0.00675877631410856,
                0.1936542734673692,
                0.2542632923466789,
                0.12132254073630717,
                0.04562154776193489,
                -0.013718320674747994,
                0.17194983098578379,
                0.27496498700383293,
                0.3976952900810857,
                0.4299648242988753,
                0.28950342852426864,
                0.02227884586505831,
                0.051021569777578456,
                -0.049671692521333494,
                0.047010115385285836,
                -0.0007132165624979559,
                -0.08165862278482522,
                0.07732900547932844,
                0.13954769769288455,
                0.17684564894129307,
                0.2122564711728835,
                0.21429150093029936,
                0.2589767174323173,
                0.3724340998771459,
                0.24941102044711552,
                0.19890227064490626,
                0.09859375272785567,
                0.09046913575026626,
                0.17339844316466227,
                0.2153109077588797,
                0.13331498732240882,
                0.18616807456709536,
                0.27515132796646313,
                0.278167235793929,
                0.3102091552288365,
                0.35454830260271725,
                0.35655028513915465,
                0.47547699121614806,
                0.2638925866048509,
                0.05896284915281991,
                0.04723303159438878,
                -0.017343984805943263,
                -0.00982669076695472,
                0.01894280994225946,
                0.09999474918757742,
                0.25293005836717414,
                0.21255781948381886,
                0.16009277935895339,
                0.22967847183380785,
                0.14902461271860204,
                0.3779249781749426,
                0.2256549720130965,
                0.37455537323121374,
                0.20990548552697308,
                0.04534794177696921,
                0.11515484634670403,
                0.0787215475783978,
                0.052192128884029215,
                -0.016588020908404832,
                0.09045139033750267,
                0.30685580710847327,
                0.20803281604119828,
                0.2519785234079456,
                0.1873582023218277,
                0.37229402887522206,
                0.4221481866542971,
                0.1737944949562042,
                -0.00987256627570297,
                0.001779090987508905,
                -0.0025576916756248295,
                -0.030911909742788173,
                -0.004020515825381695,
                0.04413788844679102,
                0.21563162974917788,
                0.21708879286434263,
                0.09604679333181977,
                -0.1416011496183498,
                -0.04824900743514185,
                0.168048960646159,
                0.011160628398876127,
                0.229554629480644,
                0.03638892055396138,
                -0.05270381011771018,
                -0.014678139494984498,
                -0.00039250762361240564,
                0.21975005057845481,
                0.08124825444659431,
                -0.06720027749500986,
                0.253463539011702,
                0.06913557342684525,
                0.10309613514115751,
                0.19613043582079784,
                0.29289677840542455,
                0.24333872311609298,
                0.09171380495848531,
                0.03597442653557846,
                0.01538552781527485,
                0.03249967271351121,
                -0.009787664704098717,
                -0.03669135230065508,
                0.13788356766122964,
                0.08856105964117868,
                0.20924468991068754,
                0.10196483626934784,
                0.07389476874536555,
                0.1006978445145901,
                0.17762475480464626,
                0.02935055031792831,
                0.19054204378241552,
                0.2122562944518667,
                0.09974548635479567,
                -0.2103741732440728,
                -0.07117501587689701,
                0.005627162787061931,
                0.03287897855378416,
                0.06328003823668714,
                0.16200005965593775,
                0.2762135132073057,
                0.30690979632405363,
                0.23169928996468286,
                0.12586842217283575,
                0.06816709864911659,
                0.0329334920338977,
                0.04007507514128211,
                0.02837833013690686,
                -0.029139476119598814,
                0.02676848122624336,
                -0.03147866614204822,
                0.07333157549081874,
                -0.060448082637281346,
                0.047548714075817074,
                0.2094880351803811,
                0.10898492094504059,
                -0.12495002225406035,
                0.08312726112851815,
                0.13751945750536027,
                0.15572463123862545,
                -0.03163751917463594,
                0.12202358523319026,
                -0.06598788523993597,
                -0.1315820316146569,
                -0.1515433445286694,
                -0.165988927952248,
                0.011032776767331918,
                0.05031831747923876,
                0.06948676342909273,
                0.12722068148827773,
                0.08189340338384407,
                0.008000079222596877,
                0.017767623631203863,
                -0.005573935022734488,
                -0.04713590316748655,
                -0.012651887577244204,
                0.01632480133934785,
                0.012663090324866073,
                0.04069431500241546,
                -0.016141844878269383,
                -0.07486364386847146,
                -0.1212711841373027,
                -0.05708024941249084,
                -0.06796612486428512,
                -0.09902220263108982,
                -0.0867954109664261,
                -0.10198926293281986,
                -0.027396532742818988,
                0.1551355519246402,
                0.11336510524807664,
                0.1610222793465748,
                -0.12310648396718091,
                -0.17816461398705707,
                -0.25637292285699165,
                -0.24161792982017188,
                -0.3077272586881768,
                -0.13620642048983944,
                -0.05358170863659499,
                -0.057906370254810505,
                -0.05564448685108518,
                -0.022799400344320864,
                0.055637183347110236,
                0.03686482185083087,
                0.02227664356069762,
                0.01347693266473509,
                -0.01945795034051479,
                0.003592781484859752,
                -0.045628058983572306,
                -0.07414847559403831,
                -0.11349706365219145,
                -0.14140313603681096,
                -0.1631382245422205,
                -0.2476511870000856,
                -0.3209030304574635,
                -0.38180359543941916,
                -0.36280346773550654,
                -0.3948085093112822,
                -0.3292055998217584,
                -0.3241462971377339,
                -0.33664464136790273,
                -0.4048163772904806,
                -0.33660328012469454,
                -0.29083844689863925,
                -0.24558570656715156,
                -0.17065344317910514,
                -0.17785805579137348,
                -0.12692603993377805,
                -0.10300508328516174,
                0.025111894976145376,
                0.024837972253510178,
                -0.02093458889062798,
                0.04223366457420052,
                0.0080489854042778,
                -0.004454930534183998,
                0.014379698288912855,
                -0.024838887854425413,
                0.0028409765834939093,
                -0.051650500474059446,
                -0.04626946963332385,
                -0.017553103792696572,
                -0.06457024021783611,
                -0.004384108275203276,
                -0.0607184013767584,
                -0.10013179647753363,
                -0.05052855061957219,
                -0.05544225096923947,
                -0.06124276797678035,
                -0.08711751987976067,
                -0.12842698835087552,
                -0.011487280916710457,
                0.022764279591955337,
                -0.00907869129410195,
                -0.03270729454896469,
                0.007262471364029036,
                0.025472166591034053,
                -0.007964202066736415,
                -0.008529031025090852,
                0.044101922817667796,
                0.02244397521442463,
                -0.04718409024059905,
                -0.007480588580518123,
                -0.04102285349387076,
                0.04834060228326068,
                0.007597606499307012,
                0.014513678401333434,
                -0.013691336462362584,
                0.016941762426688246,
                0.007257303013721593,
                0.02774798880932226,
                0.04046809356598949,
                -0.011585624479157317,
                0.03657020301772707,
                -0.05182608490586738,
                0.010694340409440457,
                -0.03376691616636599,
                -0.003327093957929017,
                0.020997668128220487,
                0.020065545934786815,
                0.015050966844522434,
                -0.006784396683281162,
                -0.02858453450740747,
                -0.028939774054022576,
                0.0051102965660655255,
                -0.006418620934151073,
                0.047981216620881624,
                -0.020119821928150153,
                -0.04253046228557716,
                0.022918135387336426
            ],
            [
                0.028495330064881412,
                -0.0255522917314626,
                -0.046814409643903064,
                -0.009402304477218078,
                0.03815859182017662,
                -0.006869664950054831,
                -0.021810594338552983,
                0.04397213123397758,
                0.027502976565358474,
                0.011211330365970426,
                -0.05023720244188029,
                0.043588591262201264,
                0.014163439094525242,
                -0.034096548217217484,
                -0.0467004382585606,
                -0.04969876535751115,
                0.04317417765263978,
                0.01951137997636731,
                0.020723030771041435,
                0.009704029302516896,
                0.0037613688174588378,
                -0.004487243064971759,
                0.010121042535115296,
                0.015564625122310223,
                -0.012824919409659373,
                0.01699419780807513,
                -0.004355308455069283,
                -0.04191458249031955,
                -0.026953520943129756,
                -0.042287842017189374,
                -0.017978963708096526,
                0.011245767826953981,
                -0.013428411325815121,
                0.022682230404891982,
                0.011860281502198401,
                -0.04607374663326193,
                -0.05526430107383219,
                -0.0613199788743588,
                -0.04147727549166139,
                -0.026380128691657047,
                -0.07571913190937504,
                -0.01999321533408405,
                0.024900365143826333,
                -0.0345066346798862,
                -0.020358786710001076,
                0.012184672881076228,
                0.00820314735822464,
                0.03171237836685123,
                0.001121882028118101,
                -0.05420313471425503,
                -0.04935173355517206,
                -0.045951523357897275,
                0.0017311263919291692,
                0.02576961557256268,
                -0.047247532728916235,
                -0.00437521369671344,
                0.032809523178825205,
                0.017031762121703438,
                0.004577844883138477,
                0.008951625771009854,
                0.039957621775163994,
                0.007381032967080183,
                -0.011756309670826153,
                -0.0007471684215377629,
                -0.05103323614896159,
                0.02261344730655816,
                -0.022893483099199394,
                -0.08472845605163798,
                -0.043303305574626465,
                -0.11037937792996333,
                -0.015057663010864353,
                0.0110077095536204,
                -0.026045610419380517,
                -0.11878085735242705,
                -0.05848847046342037,
                -0.11457209697084987,
                -0.0714425168358583,
                -0.08581472539925847,
                -0.13315068497759427,
                -0.055482187410593166,
                -0.0032137629041705893,
                -0.020138277207659837,
                -0.030202522304331205,
                0.013925533947962941,
                0.026339077476061463,
                -0.014231972799332082,
                0.021502929509707225,
                0.008259213165630648,
                0.030495029202476542,
                -0.05581172492242025,
                0.00939639347162957,
                -0.040394646986698396,
                -0.022711870621755524,
                0.03299782586054788,
                -0.05887839595129896,
                -0.05756198900714425,
                0.08270980997138964,
                0.03735552576090859,
                -0.021412263375477702,
                0.025549789383452617,
                -0.08583295722343384,
                -0.07695371446233341,
                -0.09685803276886128,
                -0.15293564972448515,
                -0.15155167114412396,
                -0.17200343908575125,
                -0.21415185414426466,
                -0.1716075142469045,
                -0.11222179193283101,
                -0.04693309510624359,
                -0.004063251801318774,
                0.04370581899291382,
                0.02658367998379247,
                -0.019042782616902933,
                0.04090678831901096,
                0.018276980254016972,
                -0.002734749228169534,
                -0.07025243509969124,
                -0.021856754669450557,
                -0.047915672488513465,
                -0.01586987972887312,
                -0.002631992223536578,
                -0.058069377493102224,
                0.05870319956399948,
                0.08346826182620883,
                -0.0056525346717843745,
                0.12939415922496195,
                0.15457527761492867,
                0.07891463053256646,
                0.10298547107945544,
                0.07513919956838457,
                -0.09768706479808198,
                -0.041127130684058294,
                -0.00946040899101146,
                0.0215642881161256,
                -0.02576497579316562,
                0.06097390236848895,
                -0.0005343701406845605,
                -0.03425040074169614,
                0.009608843839825576,
                0.023398538572955853,
                -0.02585662905796822,
                0.045998926431144026,
                0.01875130565607553,
                -0.025200581459733258,
                -0.04185577408517638,
                -0.10992222441353437,
                -0.00549699817953646,
                -0.08061614545372188,
                0.01800767452989677,
                0.04298223722389457,
                0.21930599753830912,
                0.0903818986414659,
                0.0009645044822214235,
                0.11860516659561321,
                0.1604666119070177,
                0.3036690796542475,
                0.1493880539797854,
                0.23649350967370547,
                0.03556710737084066,
                0.19142086984812806,
                0.13887449426863588,
                0.07757100222776957,
                0.14286263638956842,
                0.1601252421964397,
                0.0842236086222192,
                0.07102719665471327,
                0.038099293435725934,
                0.020296799972248154,
                -0.005982524325143201,
                -0.028975270501455257,
                -0.0038546534078020976,
                0.031177969483143553,
                0.038470822227229765,
                -0.03550373394434014,
                -0.0030160256257372917,
                0.031629323265099776,
                0.00010942665475642954,
                0.07413335097885224,
                -0.01344652267645806,
                0.04501785002354208,
                0.08847745233069758,
                0.14028443077974803,
                -0.04198629010015881,
                0.024360683714042968,
                -0.049824315215264994,
                0.00466940264241927,
                0.07732785317716073,
                0.07624202216136804,
                -0.045606993638657535,
                0.18897099093191314,
                0.1484413243069671,
                0.44875223024345645,
                0.2906095999746573,
                0.11779252579935212,
                -0.05148112657134627,
                -0.03673348993538321,
                0.020823169000362733,
                -0.005078968521071382,
                -0.04254904148769231,
                -0.08993003303500403,
                0.06963227331033843,
                0.07501300180586987,
                0.1385096603630522,
                0.11826664260582488,
                0.10783377597762075,
                2.8751108546614884e-07,
                -0.0033369554051864833,
                -0.06797847350049817,
                0.0013228707248533862,
                0.08118864387932623,
                -0.023059952831059684,
                0.05700890471782014,
                0.0303353499889758,
                0.08278182934072612,
                0.05467885033927613,
                -0.0034764502697316735,
                0.06869627385282662,
                0.2876121126220595,
                0.23543073217898813,
                0.41755146287341893,
                0.4203502115940454,
                0.1036189651843312,
                -0.034529612328052836,
                -0.027871014957310238,
                0.005150203277482085,
                0.02082942322896257,
                -0.03538869095604299,
                -0.18572574080244558,
                0.03557681337403434,
                0.03845569733126488,
                0.08359193713515019,
                0.029845767019768987,
                0.01844755962711673,
                -0.055911287243737076,
                0.09286108969274458,
                0.028656501110893903,
                0.06980315930322722,
                -0.00870515653521717,
                0.03700356332060418,
                -0.07480487822587274,
                0.08157017241280438,
                0.0772806807035436,
                0.2441899154525935,
                0.2580670931098052,
                0.23143098904418677,
                0.1545005968445886,
                0.30887131232108234,
                0.5381970204202838,
                0.4996778458212987,
                0.10876365427013612,
                0.05516106407967593,
                -0.005029633767556017,
                0.03846715909099009,
                -0.05659222978034531,
                -0.04762636357282455,
                -0.05108564483775349,
                -0.03530530312702927,
                0.071719108297292,
                -0.018948401717567155,
                0.008230469364775454,
                0.024612803124534073,
                0.01964639439787238,
                0.11455799777881348,
                -0.0084087225469471,
                -0.054242010085366554,
                -0.1109366439118645,
                -0.134263959943241,
                -0.14126403519842218,
                -0.1693307957078652,
                -0.11208479205189248,
                0.04821338639036668,
                0.030581585122644965,
                0.2447364647207522,
                0.1735143127365994,
                0.12166610673633989,
                0.5471633427802617,
                0.4930837765210232,
                0.10766913422806276,
                0.03863870055431345,
                -0.044368106316262326,
                0.04080327415886126,
                0.010044863975416865,
                0.02133191605432378,
                -0.0631324738499254,
                0.016855265959562757,
                0.0005642665780075831,
                -0.1330389917481686,
                0.036899816776209675,
                0.02377958464908697,
                0.04999223048101098,
                0.0872271948823072,
                0.08594167565726425,
                -0.1507225564992656,
                -0.052720715925963564,
                -0.1349197472102146,
                -0.1895900903973144,
                -0.22920016016307104,
                -0.3580297658491936,
                -0.5485134335241149,
                -0.49763982124298645,
                -0.35436989694608223,
                -0.27156709383247774,
                -0.1897774714674097,
                0.1260108763145532,
                0.30181812645938516,
                0.12668762568329067,
                -0.03593516124280437,
                -0.040405831137111534,
                -0.02142983311286305,
                0.009687555979225587,
                0.03481828275157333,
                0.05169656211821295,
                -0.14969811539020375,
                -0.03005080459697694,
                -0.17718495624195013,
                0.029035778645220726,
                -0.08252994816457584,
                -0.06000990324336974,
                -0.1332139634227429,
                0.016482447592157768,
                0.06089215171681265,
                0.08358668677239611,
                -0.017453052989873388,
                0.04325340164598356,
                0.006404011917073433,
                -0.1091061630799578,
                -0.2210069654842263,
                -0.586383753453297,
                -0.6329991650187919,
                -0.7645299747781024,
                -0.4553570601592883,
                -0.2825257047006901,
                0.05351007291995885,
                0.011581648076268615,
                0.054566804784564486,
                0.01702886416706969,
                -0.03231467026745776,
                -0.028571510260705354,
                -0.03529234514923671,
                -0.02787573744032933,
                -0.08125504422558562,
                -0.11580015611306507,
                -0.14525714973717863,
                -0.035028986251527526,
                -0.13114147967806034,
                0.00029534733228474096,
                -0.006480558414931694,
                0.08379061928226667,
                0.13692926950265186,
                0.08152244715221747,
                -0.003783198685691774,
                -0.22056646111660616,
                -0.09210594245054267,
                0.051843266421321046,
                0.05816933447339824,
                -0.030045471203854535,
                -0.27150663760529464,
                -0.641770206746256,
                -0.6804680618221076,
                -0.414899917922282,
                -0.005978979276877147,
                -0.013847988343816064,
                0.02221822994350609,
                0.027255278463986427,
                -0.01572788899168711,
                -0.03389043738234362,
                0.04042602671553237,
                0.019333534539936748,
                -0.01262954276767945,
                -0.13206196419350277,
                -0.09233112049261623,
                0.007149183703861078,
                0.03474447110842799,
                -0.14059195347406125,
                0.08021378891753021,
                0.03892289070294879,
                0.17681788288631617,
                0.24217449478754297,
                -0.02562868988188881,
                -0.17921650922585694,
                -0.09446313425405496,
                -0.051153645621050826,
                -0.014823828066708709,
                0.1289824305827907,
                -0.014217905286678115,
                -0.34447855413642414,
                -0.47062576570000725,
                -0.2641419941938432,
                0.03491060749826243,
                0.06868022347397272,
                0.012691684025281135,
                0.017688901435686903,
                0.023425985612989413,
                0.02300745785687343,
                -0.008227941807920549,
                0.03437859993850037,
                -0.06510859360603133,
                -0.05527885184371528,
                -0.03684184572558769,
                0.15438284796306334,
                0.0019185965305337862,
                0.016916020568798755,
                -0.0903041416365925,
                0.022155947830233044,
                0.22231426388718412,
                0.09400521495349937,
                -0.10247244054592047,
                -0.18130427885379852,
                -0.16770221568162216,
                -0.16695024731971045,
                -0.1455913477899163,
                -0.10761834080434876,
                -0.1870960956642151,
                -0.11475962252955499,
                -0.1705801900528906,
                -0.1180196843387445,
                0.04013531310599148,
                0.055522294527852185,
                -0.020380260300907112,
                -0.0013055365825374407,
                0.018642942032779206,
                0.024518558571548964,
                0.04897788916860983,
                -0.0291971326699268,
                -0.14935738433255683,
                -0.02986072354562081,
                -0.13048633594292788,
                0.10383803713905608,
                0.08213968348485469,
                -0.004271526971116431,
                -0.045830515616842184,
                0.025636718858648287,
                0.15777759581891074,
                0.0735673820375191,
                -0.17162116410883818,
                -0.2187215495284324,
                -0.1773133702327771,
                -0.16334268444831707,
                -0.05445555216943373,
                -0.1611982859793302,
                -0.195716762938895,
                -0.15222263456567622,
                -0.00405393983041674,
                0.022247483381961697,
                0.053643299142425827,
                0.030317965502216004,
                -0.023879669281971126,
                0.02034858908989929,
                0.012699815116076442,
                -0.052371905651334386,
                0.05480881131653682,
                0.13257352382341903,
                -0.05470859435365479,
                -0.0430584575260105,
                -0.29586358656209494,
                -0.1839065792501805,
                -0.015553355341728326,
                -0.12525394299236758,
                -0.0494109326094634,
                0.08306376340379713,
                0.2938832687402856,
                0.12938376196735873,
                -0.028830472356565377,
                -0.19409728213746652,
                -0.09525909786405228,
                -0.058032562165319594,
                0.0011527733192337256,
                0.00980585340104075,
                -0.03342868364230083,
                0.02858191295264299,
                0.15369435568599893,
                0.17962696498109698,
                0.04151803370238119,
                0.026978244918749457,
                -0.007789024155057677,
                0.04978907449201201,
                0.00011370393458065908,
                0.045484538597709144,
                0.08977020039838324,
                0.219644863566624,
                0.1156067929064415,
                0.10579263064096935,
                -0.10425511268008536,
                -0.2930395321707061,
                -0.13443703908162982,
                -0.09031175581020584,
                -0.1307303907554652,
                0.041292112288691216,
                0.028064704137402117,
                0.045146134916733506,
                0.022557618704000953,
                -0.029474931662979,
                0.0827392241765287,
                0.19842342589527912,
                0.11622957612913296,
                -0.033008780612139514,
                0.10361739019273646,
                0.14090519248199607,
                0.09604455859553025,
                0.1658596696154771,
                0.15456554965044686,
                0.038780133994531896,
                -0.011052702355593361,
                -0.003029501580632982,
                -0.010704835417042854,
                -0.013794111108744804,
                0.10812313539603113,
                0.27185140929859664,
                0.19719039301375968,
                0.15005191110186195,
                0.10167809109849418,
                -0.17051105618386275,
                -0.12652447636930708,
                -0.18579968639620192,
                -0.1842710577396904,
                -0.06308746119991321,
                0.026027610843419407,
                0.1335608214921966,
                0.11917106579621745,
                0.12895155840520947,
                0.10633405330586236,
                0.07881028572676996,
                0.08565314985070194,
                0.081076244051786,
                0.09214546057395001,
                0.13278718760362276,
                0.20053898714674154,
                0.21615639380860413,
                0.047325810285828544,
                -0.0014465699153296584,
                0.03578220670014812,
                0.029576982012959975,
                0.00610721974346617,
                0.013472477734826788,
                0.09917052417663288,
                0.20316450216084242,
                0.29874075204382416,
                0.24634909926259269,
                0.061752345756454774,
                0.15481691513101287,
                0.1988631800883431,
                0.033734981797664446,
                0.03902033016866877,
                -0.08349676023768117,
                0.1197170888327083,
                0.06508697317706821,
                0.16117665454291819,
                0.06145468072431788,
                0.051757241563693726,
                0.018007998475287692,
                0.09800539080645865,
                0.08647613962363843,
                0.09475654562015298,
                0.1113836946434953,
                0.16603477958794402,
                0.13261268511355706,
                0.03255752947383594,
                0.021085749907625014,
                0.010126771219101424,
                0.014797784496017284,
                -0.00020343673754778945,
                0.02481055504659704,
                0.05911576733581622,
                0.12318193470083799,
                0.20323976009076636,
                0.20779265662225657,
                0.13986611402728347,
                0.26614137874519495,
                0.19063481361940735,
                0.029471281424514155,
                0.21309404312025299,
                -0.07172515287515958,
                -0.04157894686295573,
                0.0919538732860554,
                0.06854185519758144,
                0.13803337869023652,
                0.18767000375852702,
                0.1883614299147208,
                0.24207141466198745,
                0.20651373963111425,
                0.10297488409765178,
                0.2970469017173878,
                0.1827972906307689,
                0.11556270382981998,
                0.04473607632779361,
                0.004208949872842769,
                0.03052587807583804,
                0.02460562249786275,
                0.03930011032369638,
                0.057821292188308226,
                0.07942722216158303,
                0.15540549198363404,
                0.08504226446140364,
                0.09220052834085174,
                0.16431668035788277,
                0.18914979401495152,
                0.034058232892431164,
                0.04928668335686313,
                -0.08852574560615017,
                0.026493675001177785,
                -0.16447552721939845,
                -0.13911250526198982,
                0.06748296262783554,
                0.05117568925047681,
                -0.07786498116572682,
                0.017650298404132563,
                0.06829659181004263,
                0.19070111471409565,
                0.3343016289185909,
                0.33788216407429644,
                0.11126485839252687,
                0.00345400413892035,
                0.00884811977888553,
                -0.015195540831387027,
                -0.007047281136408214,
                0.03529338854108243,
                -0.048224257004244285,
                0.04257771485637598,
                0.07360612820481476,
                0.11605291286310515,
                -0.021313047091780994,
                0.04558599804248969,
                0.0029926283131017526,
                -0.03171730449887141,
                0.03924951730057777,
                0.0752118997470857,
                0.06985857325722213,
                0.003969570193219408,
                -0.08122662260774831,
                0.03951400434095514,
                -0.08607526679553465,
                -0.020010431340323216,
                0.09197134408662445,
                0.1328313123352665,
                0.1723432498819016,
                0.1936364371757893,
                0.307770215684229,
                0.15957411001943136,
                0.12338991457384338,
                0.03597002599110503,
                -0.010851830869393835,
                -0.043973644521970084,
                0.021376291921235753,
                0.007054321006781154,
                -0.03521536695299941,
                0.019353939950671355,
                0.0435116433067902,
                0.1538124314335379,
                0.07735671685050445,
                0.025929752310846925,
                -0.06844780694239572,
                -0.010610046029234352,
                -0.08756141246932238,
                0.08974197049760783,
                0.048887921253313024,
                0.1679390115086642,
                -0.016059364002652215,
                -0.06978719769854236,
                0.10480371255933903,
                0.060404794417190384,
                0.11541284796324998,
                0.0015971994575885934,
                0.08011813640487336,
                0.23952258494667397,
                0.10873155773930428,
                0.060366224136573075,
                -0.02510120745343156,
                -0.002272387009203803,
                -0.046768059231202364,
                0.03527905409066762,
                0.04539321453947275,
                -0.02374281472012588,
                -0.04026730244143002,
                -0.020958413739534675,
                -0.02780060837241396,
                -0.051011710798059974,
                0.04789039200999285,
                0.05238159534851285,
                -0.01687729617913189,
                -0.041754368680497714,
                0.14356872968358206,
                0.07758923526085997,
                0.041999483924608096,
                0.06900055178448686,
                0.01393624344612992,
                0.074368793763638,
                -0.06713204957487284,
                -0.0373343643633854,
                -0.02434727226557785,
                -0.03544044365752006,
                -0.03707876239700264,
                0.020569747558293723,
                -0.012492523037559634,
                0.021343703949453587,
                0.0049903154113126146,
                -0.014960988387460766,
                0.017447937314787755,
                -0.005407621969703158,
                -0.019464976388459548,
                0.013724719269386322,
                -0.001754859687310699,
                0.04830501757437716,
                -0.03024175613116041,
                0.009932808473876202,
                -0.017326754438464268,
                -0.04117168687959647,
                -0.11239066012831475,
                -0.06066564063468686,
                0.05558169833754141,
                0.07178985822909657,
                0.11740684067023309,
                0.1820371153696295,
                0.13772430676796266,
                0.056076635233929494,
                0.05640703642536994,
                0.07525916267125579,
                0.030154362200688255,
                -0.005467131508649182,
                -0.10755422736572418,
                -0.15012782978238262,
                -0.039591195685553804,
                0.078338807939816,
                0.008898690443299922,
                0.044768366805333915,
                0.010756972937588104,
                0.007414494864803098,
                0.033632363375264755,
                -0.0503948756915069,
                -0.03063794218384559,
                -0.021501948564854496,
                -0.006356695969371405,
                -0.05972434247452116,
                0.0072857035178996235,
                -0.017656194706304175,
                -0.05463680780229923,
                -0.1348481307410256,
                -0.07439769875651557,
                -0.1622325251477614,
                -0.12901384322609016,
                -0.026344812745243498,
                -0.06352206413208128,
                -0.11738174280940496,
                -0.1047583806149953,
                -0.08852297954533977,
                -0.12240881664611682,
                -0.02476244633046411,
                -0.016727090261319567,
                0.009414924461635527,
                0.024680087696686136,
                0.04189536088796705,
                -0.01643469118711495,
                0.04293922928640876,
                -0.0030696832069373623,
                -0.028692417066930966,
                0.0014773363788883678,
                0.014545888044720977,
                -0.018241367965993315,
                -0.039718557217870695,
                -0.004357293123368147,
                -0.0013251619585389113,
                0.02682227860740249,
                -0.04364053035825739,
                0.016987729078752466,
                -0.03551334940564479,
                0.01816164382766112,
                -0.015443726031877904,
                0.04045170217553021,
                -0.005103238802459882,
                -0.030495127847698433,
                0.018582881357939302,
                0.04319394952269705,
                0.015886926287809577,
                -0.03662082107354738,
                -0.03451836325732656,
                -0.015110019604376634,
                -0.001042822532888991,
                -0.04698122513558427,
                4.0813029974716845e-05,
                -0.0025370106000966244,
                -0.006476793553895195,
                -0.01932848138761264,
                0.046158071337736604,
                0.0167690613852998
            ],
            [
                0.0015753576500294325,
                -0.013521214018383833,
                -0.013009453704796892,
                -0.022891734710865492,
                0.004744005287484011,
                0.035773240407361274,
                -0.04654759675724654,
                0.025384929442924177,
                0.02866448141931783,
                -0.010634481367712667,
                0.024626942739276965,
                -0.011183694573153033,
                -0.01893736630783182,
                -0.02665129433472393,
                0.03146775261022288,
                -0.04753751100529299,
                -0.02635511009301728,
                -0.020065612458562816,
                0.0108723489791554,
                -0.007493559608072332,
                0.016471702489391622,
                -0.03605624064625312,
                -0.015813553364160453,
                0.002960779186988817,
                0.012380987356790059,
                -0.023273844544482006,
                -0.024125461161795182,
                -0.0458221377427603,
                0.03259868313974213,
                -0.047684624654899865,
                -0.014078016617419281,
                -0.0323343394858375,
                0.00014984470916920364,
                0.0484487471141209,
                -0.009968825076873305,
                0.004095530365584606,
                -0.0017654588869349403,
                -0.05333136916320923,
                0.018756446691057516,
                0.02060427257531171,
                -0.0016936517435903254,
                -0.0418955664592693,
                0.008409163147222577,
                -0.009074462381340988,
                -0.009434675363464238,
                -0.041784127626504415,
                0.02673655068062825,
                -0.051784490528195025,
                -0.033352648095517155,
                0.019865957750581323,
                -0.027486810340501718,
                0.034526424778626906,
                0.010265741865792856,
                0.025583189626880658,
                -0.027697489237375233,
                0.02539331575204421,
                0.033946493164660106,
                0.00424439350283469,
                -0.047783355576824595,
                -0.017272842845991714,
                0.009233229263121688,
                0.04410369259929902,
                -0.039122547832461205,
                -0.08191690411981348,
                -0.05565189740428972,
                -0.059082415716497576,
                -0.06860589771817667,
                -0.05051573526631387,
                -0.1612321555199772,
                -0.0006309544042575154,
                -0.07945564582747522,
                -0.06164771575938878,
                -0.014117855938743882,
                -0.0644689385617917,
                -0.08569951768191061,
                0.003797013730187761,
                -0.047977444222696855,
                -0.0009735739837371766,
                0.0004680743772314575,
                -0.015722759890613874,
                0.06145049488200164,
                0.025532700222736467,
                0.02600848266961902,
                -0.04831873444792194,
                0.011028066853542497,
                0.04497097748456084,
                -0.02633158742819737,
                -0.02620595375241152,
                0.026730045578048735,
                0.035945918116603325,
                -0.07110620193613484,
                -0.11248739829579903,
                -0.08442602213059906,
                -0.19548438588414196,
                -0.22229109395711555,
                -0.2166828249811396,
                -0.22944113816985115,
                -0.2110755093907661,
                -0.1876227349224323,
                -0.23808197990212304,
                -0.099835850519955,
                -0.11976300168630709,
                -0.07637814509584208,
                -0.0663684104628032,
                -0.11446473074259543,
                -0.17223375422307824,
                -0.11265947559803323,
                -0.05515888578097594,
                -0.06783259741384869,
                0.0017909062717266504,
                -0.006322082226468696,
                -0.037412859407640255,
                -0.046335055595687895,
                -0.05002805648872485,
                -0.015091665555268597,
                -0.027476704454816293,
                -0.011737266236303718,
                -0.029704452356030045,
                -0.13911406792304912,
                -0.20340622522981333,
                -0.2129452615403295,
                -0.31233354445473577,
                -0.3461554739004575,
                -0.3349258499237035,
                -0.1610362942468137,
                -0.22487018702888376,
                -0.07570431523599268,
                -0.06977132531263598,
                -0.07145064238384341,
                -0.08232601846667452,
                -0.28785686605871463,
                -0.21142589830311137,
                -0.24900401609531228,
                -0.2752490303458499,
                -0.22025581788024698,
                -0.030462355854675386,
                0.0165669390169013,
                0.0029472268653731926,
                0.04337812661554925,
                0.03295578305597103,
                -0.018448037432987036,
                0.009918942704845737,
                -0.011868606554103028,
                -0.057148096281767084,
                -0.06557638121805588,
                -0.041437211630239563,
                -0.1362414080966823,
                -0.13639525711293357,
                -0.19315053049548725,
                -0.20616578863088778,
                -0.19402378444079055,
                0.016043540537613643,
                0.20277619205766975,
                0.10666656913071455,
                0.0834239443335782,
                0.16937872561868364,
                0.18697360633585847,
                0.2145192652735813,
                0.19585421570254838,
                -0.0689178794767104,
                -0.09346931672141906,
                -0.09155370471748764,
                -0.05855556253590956,
                0.008645862461215835,
                -0.007170187056982883,
                0.019625985163646772,
                -0.048062353915496035,
                0.009942206628025693,
                -0.03506370682410713,
                0.04812393008206111,
                0.013447521790873154,
                -0.10258352722969209,
                -0.14753869020382432,
                -0.07847333823709683,
                0.058554494992109934,
                0.059429216941406966,
                0.07706897069371313,
                0.025665869117675436,
                0.11974883760961545,
                -0.043467137362242815,
                -0.11101328673527257,
                -0.1080805939874881,
                -0.28118953653057893,
                -0.28742895591335577,
                -0.08293926028830856,
                -0.04117486883194,
                -0.15622782394587983,
                0.13430602741290637,
                -0.06472135922910506,
                0.08630656605950562,
                0.24879386301723228,
                0.26458097144608383,
                0.08826239893806424,
                -0.0029849264999127823,
                0.0060106816079140155,
                -0.020251876838011343,
                0.018050884786454967,
                0.04394200592669227,
                -0.03102533228911262,
                0.034093693071126606,
                -0.06695899804860805,
                -0.05155315372858903,
                0.21419016492775061,
                0.2395907632806815,
                0.02943710348516119,
                0.17387571854343487,
                0.14414871003540541,
                0.011943786984310294,
                -0.0172575552751431,
                -0.12711209574560142,
                -0.33820773502995705,
                -0.27907609642651066,
                -0.08375514879731986,
                0.09000847446388713,
                -0.006916189274818078,
                0.06395019137547146,
                0.007716662974429879,
                -0.045569861364863726,
                0.07590533555447061,
                0.3904885368670271,
                0.3063717703276994,
                0.1176771881764286,
                0.05558262331054575,
                -0.0012457102257634925,
                0.04559232347027669,
                0.030930497193313613,
                0.0800837400792705,
                0.026257097313340853,
                0.038516657623525026,
                0.012583214237295031,
                0.12868968411374196,
                0.1869259728296548,
                0.17101031094137503,
                0.24926123235873712,
                0.2329084646022495,
                0.1319914286715177,
                0.17589989997926378,
                0.10587907941384127,
                -0.21443562375494113,
                -0.19391071643760902,
                0.019381613930848928,
                0.14796556807788502,
                0.1230674186955561,
                0.17761783726130267,
                0.13987877087112272,
                0.08303490667446525,
                0.14929560917890605,
                0.4886253699674323,
                0.38486446560871707,
                0.09113310507021688,
                0.0015921628023080005,
                0.005142898420583135,
                -0.025000976290469816,
                0.04221950045461629,
                -0.009955888049959746,
                0.08901572601492887,
                0.15696285246125605,
                0.18298833462548028,
                0.15576713016195273,
                0.2165305131267199,
                0.02689461880215492,
                0.13338848690361163,
                0.23335414219395545,
                0.23466241793032055,
                0.20802066253065168,
                0.214943162038647,
                -0.04273543616691857,
                -0.15178069782709472,
                0.2268059742084794,
                0.24823000491293998,
                0.3165018597991011,
                0.2556737215789385,
                0.17094540382042905,
                0.19134540281368675,
                0.11315485501283373,
                0.40944575178589226,
                0.4169746015213591,
                0.1256960843417363,
                0.07394667306408208,
                0.045050865773222974,
                -0.027683036047263066,
                0.0070098778442063275,
                0.09971566516718502,
                0.141450672915549,
                0.2291693248124039,
                0.27505800803623204,
                0.15058719085367975,
                0.1746142335168982,
                0.08852576458719777,
                0.2850149871773926,
                0.3420884664340411,
                0.37870347710067925,
                0.4482306383521869,
                0.5144194321242745,
                0.16441290355991642,
                0.1625202889050421,
                0.1471373420225662,
                0.39307109325489714,
                0.2978558138231629,
                0.09930230351058969,
                0.31433845203602256,
                0.3387009644448045,
                0.254152460475929,
                0.11241177660572017,
                0.2515176049773085,
                0.16836621025628368,
                0.06388978938723966,
                0.05101810505534257,
                0.027247522876426605,
                0.053483528719284745,
                0.10790538981709297,
                0.1929862930437624,
                0.1401955596435263,
                0.09720785111594861,
                0.2035857266526883,
                0.1745648949205945,
                0.041736633880826164,
                0.2856237652478829,
                0.2752940036904769,
                0.2682113482635084,
                0.3739536984250446,
                0.4364956180846661,
                -0.05528596036681614,
                -0.1744825904852509,
                0.0422418236187501,
                0.24869656306463478,
                0.11468792672196924,
                0.04844839040047478,
                0.04143332964703177,
                0.08516495654376253,
                0.08314357436742162,
                -0.10215009039512811,
                0.06739862019147098,
                0.08031174491825763,
                0.10635839468580331,
                -0.017955528226664772,
                -0.027534345085514427,
                -0.02382756686644297,
                0.04897469198259722,
                0.15617811780906668,
                0.1285543774450686,
                0.07627076697079371,
                0.16018160700704112,
                0.3407884660823712,
                0.16681694607668876,
                0.09587797593193077,
                0.060696809387429905,
                0.03381511446263097,
                0.20130850811394488,
                -0.012575185723795452,
                -0.48266113593095783,
                -0.2727756994023026,
                -0.08773451173122962,
                0.15057297243629475,
                -0.07004689697700701,
                0.03877861997033101,
                0.022796043268615607,
                0.017006844898367002,
                0.08178378606273962,
                -0.07531353465340017,
                -0.024666971291079857,
                0.0057333176293952,
                0.06872991644380559,
                0.003977061495797259,
                -0.03143777434964208,
                -0.012904246501627767,
                0.051155404437347174,
                0.07802061083188117,
                0.024366004199474732,
                0.09758351406853313,
                0.1299090076271145,
                0.1414233785936035,
                0.017747659150285564,
                0.09355945041782929,
                -0.04808023897766989,
                -0.12943311732950588,
                -0.07958301634790309,
                -0.2325491865634698,
                -0.6255814328757946,
                -0.3251722282311936,
                -0.053252757078484446,
                -0.08888784878932868,
                -0.18386245233875437,
                -0.11856968957762055,
                -0.00328723740592107,
                -0.06128824789424901,
                0.00879213140778161,
                0.053055831528588,
                -0.028714508119390893,
                0.004678618236684121,
                0.024293245240082556,
                0.04485158265668723,
                -0.01886990450438455,
                0.02719043358197027,
                0.015948738510062316,
                -0.005277934419146203,
                -0.010652420750646492,
                0.04342436471053292,
                -0.0031968542177959105,
                0.08955764989067667,
                -0.014706393626385284,
                -0.1712622003285632,
                -0.10621652654938307,
                -0.2389576353674219,
                -0.1332405809872434,
                -0.24271433885869173,
                -0.282439331314331,
                -0.19874614924271147,
                -0.14714049328644968,
                -0.021747771047986638,
                -0.24091525608991235,
                0.010253363717101867,
                -0.04890312275862066,
                -0.05949075652609372,
                0.02878682594548088,
                0.10650112076072657,
                0.023871622149905458,
                -0.021662188493268102,
                0.022712723392242486,
                -0.03492134773024654,
                0.01744842114528674,
                -0.03243850898794879,
                0.04972953583948021,
                -0.04485407891001488,
                0.010544870092925969,
                -0.18041946877539572,
                -0.3203064174979768,
                -0.10119086675961271,
                -0.177878680015935,
                -0.07901802595893288,
                -0.04758930183168329,
                -0.0955158955114052,
                0.0013838857112372165,
                -0.2646367835616219,
                -0.3643731893329036,
                -0.3000608687791219,
                -0.1856556072453756,
                -0.1727056749478408,
                -0.02762361657288133,
                -0.0499753325034098,
                -0.05426225463761496,
                -0.09970070816416743,
                -0.08477690873816175,
                0.017478541171422158,
                -0.042707187195449546,
                -0.016587085556792325,
                0.020371842388598807,
                -0.029010746846597917,
                0.02639568282643614,
                0.047844344159674076,
                -0.03644302208789798,
                -0.043413452527381574,
                -0.063181510755654,
                -0.1347626664342986,
                -0.10495063476744995,
                -0.1051085207534556,
                -0.1220262579974134,
                0.013638127540568085,
                -0.039691209908107705,
                -0.1881299150840729,
                -0.15009612771705286,
                -0.44578888575037134,
                -0.2836178552975955,
                -0.07825579348797745,
                -0.11834591686650689,
                0.041651811107566813,
                -0.1781021096236601,
                -0.04487980654256793,
                -0.12542162593206524,
                0.004275576132684904,
                0.037574338830276686,
                0.15241800173922307,
                -0.04489636637899746,
                -0.07695092859209993,
                0.03691038529046937,
                0.019268134903547816,
                -0.02694369962642536,
                0.0016239677891218389,
                -0.03853327766000627,
                -0.01197186846355216,
                -0.035197995255607954,
                0.12763878573464538,
                0.08434866663601172,
                0.049385672910588124,
                0.08803299015153622,
                0.31971915377199883,
                0.10811166286967763,
                0.06286054160084857,
                -0.046558683220750526,
                -0.1944049417222863,
                -0.16803152337325947,
                -0.19756140312331283,
                -0.11155350605813034,
                -0.0007166054141158489,
                -0.09640641686801892,
                -0.11803741597705458,
                -0.16731218134117906,
                -0.12562646911166386,
                0.12040298192340962,
                0.06375509494436042,
                0.053634088958089514,
                0.002665830148345863,
                -0.03929455406741116,
                0.033331718486925385,
                -0.033174065241493834,
                -0.0367107310344102,
                -0.044962417756515986,
                -0.11833588558756397,
                0.03623554985846433,
                0.09970526027865534,
                0.06487384195030961,
                0.16699598615451516,
                0.058731669252506835,
                0.07187184686904038,
                0.07823312122749744,
                0.1578235433014815,
                0.12057063530389014,
                0.09851091092446604,
                -0.04291729120284343,
                -0.16368195762481486,
                -0.14438307466025377,
                -0.032774022527794065,
                -0.05107212148098508,
                -0.20787640597567633,
                -0.1105957686556273,
                -0.14119214894712195,
                0.0363810220413819,
                0.020514314381292847,
                0.022137310207390442,
                -0.0012477770398211128,
                0.017378662774401307,
                0.041161233716860965,
                -0.030116473142085997,
                0.0168897427994388,
                -0.0209883338838384,
                -0.11659065338345317,
                -0.0220057516028605,
                0.1347298669300648,
                0.17587596299866487,
                0.09175255246628633,
                0.13889258453715547,
                0.09453507737819987,
                -0.08692448607830836,
                -0.03366288285704061,
                0.10877497530789755,
                0.11312727162989819,
                0.15348405062504394,
                -0.10451263391990245,
                -0.1729551811176667,
                -0.1134381651862751,
                -0.1163713867262415,
                -0.2405179074809579,
                -0.2415244662655039,
                -0.11244118734666625,
                -0.07139512329589563,
                0.032750745302809955,
                0.02865608773634857,
                -0.004882429092156214,
                0.04272228276119121,
                0.007580590566774727,
                0.021341994819022804,
                0.0017348160655550387,
                0.02266502013249175,
                -0.1000523019797663,
                -0.049253028391515206,
                0.10712579097314494,
                0.20674394745243943,
                0.14733573000441502,
                0.0796868630920417,
                0.17651137570706413,
                0.24685737632666147,
                0.08281725813028169,
                0.2133950493760137,
                0.1591351819877206,
                0.0020106569327034978,
                -0.06460121807804128,
                -0.11857967548817958,
                -0.18520565074730821,
                -0.06031917311555162,
                -0.2219394909277298,
                -0.19761169975714296,
                -0.06997373396189127,
                0.05046448508758118,
                0.07600885267479275,
                -0.02890932290992069,
                0.026796805091671615,
                0.041641694910383414,
                -0.024596710613693642,
                0.024347786508566747,
                -0.03255827022054576,
                -0.0274903648634271,
                -0.1087731609250867,
                -0.11893794483288503,
                0.06560499939882126,
                0.2085194598173303,
                0.19786860996956718,
                -0.03157033594592162,
                0.018075411586423496,
                0.061159010376282005,
                0.09425122312601636,
                -0.0684591210785632,
                -0.13084880802862534,
                -0.058291566403282404,
                -0.05855053760020292,
                -0.030816737268490425,
                -0.09384667264051012,
                -0.06190560088869209,
                -0.16184141011588773,
                -0.03055370013766541,
                0.07930842146123832,
                0.09380023160259,
                0.011255364084892073,
                0.012392499727426362,
                -0.05242198510463799,
                -0.012274165457410733,
                -0.03871856562750302,
                -0.031170052994886007,
                0.029236535768112193,
                -0.020262997112750133,
                -0.06290231407145343,
                -0.19677366269015298,
                -0.10892467549420799,
                0.015554260765270594,
                0.09563179562348369,
                0.06560497042196198,
                -0.012211334216254683,
                -0.07583480136686466,
                0.10288829884485279,
                0.17381684540097855,
                0.22485235421313562,
                0.15831265357558796,
                0.13809326908182612,
                -0.07788984244059917,
                -0.004588493650706816,
                0.12202295152153365,
                0.06011922874335,
                0.15210294334037447,
                0.07105298799565975,
                0.01885368964377379,
                -0.005174996594766041,
                0.04286708158541663,
                0.04334606079918163,
                -0.02726533490402032,
                0.006248563003674587,
                0.04246568144211257,
                -0.026834995581018338,
                -0.04304296356226016,
                -0.05660677790319891,
                -0.09874250722910323,
                -0.1629655384442436,
                -0.09738719214745188,
                -0.07808795532388312,
                -0.010404348336217499,
                0.06518256176855765,
                0.12480195699034724,
                0.4148505861246608,
                0.1810626933116913,
                0.38267941435484987,
                0.22430187497201218,
                0.3427469008505157,
                0.19442375218532246,
                0.18784738999714257,
                0.1674143234684046,
                0.16822941337645592,
                0.10736048316758044,
                0.021387434220016193,
                -0.07162052749533247,
                -0.07576590975150775,
                -0.0328862029070033,
                0.05430282414954899,
                0.01509230716325141,
                -0.005405974140157373,
                -0.004856249187059833,
                0.04668114608526094,
                -0.02330739890634638,
                -0.0008921306061744011,
                0.001737968550652577,
                -0.10045904641261867,
                -0.17870159062394553,
                -0.2106111591551663,
                -0.1339538498013674,
                0.005892749410015452,
                -0.029726132833954175,
                -0.008123654468668416,
                0.04494950075336904,
                0.18641003833634248,
                0.11439714354064706,
                0.2383024835868316,
                0.1714348133577676,
                0.14254662705432022,
                0.07658487607521768,
                0.07128816401727536,
                -0.10569795386739947,
                -0.1146863576502498,
                -0.20696091786737697,
                -0.1068877146235743,
                -0.027632911093954812,
                0.04135837681471157,
                0.022378139805522158,
                -0.032686640739013964,
                0.04229711198240523,
                0.00784953759885662,
                -0.012293265279436692,
                -0.023889348733238818,
                0.018587585816299004,
                -0.03298121180312235,
                -0.15469089833674274,
                -0.24525118814262065,
                -0.12881388775470037,
                -0.06503165064148873,
                -0.2147323718057452,
                -0.16259957258126814,
                -0.16914249455347483,
                -0.16162564247828,
                0.03208350799678467,
                0.08926581773817405,
                -0.07655213925273664,
                -0.07345692788625084,
                -0.019222759517812986,
                -0.08740085182307551,
                -0.27828838865774946,
                -0.16471413814288607,
                -0.14723638859395496,
                -0.11684317621565118,
                -0.033173440977236617,
                -0.04230479359140337,
                0.04498465265144995,
                -0.009580180032346695,
                -0.030253905202764376,
                -0.015777164989351063,
                -0.030729948168266148,
                -0.025730395845190643,
                -0.009305442038759036,
                -0.09852551487496224,
                -0.12537716251905492,
                -0.09494754598994236,
                0.0072969131777965955,
                -0.04331925764535444,
                -0.1834921534400479,
                -0.0049455072898808876,
                -0.029320883346486457,
                -0.07123706649536861,
                -0.07111529791271862,
                0.012392360662740607,
                0.012576020844914819,
                -0.0252370405111815,
                0.09939054442332909,
                0.004056147069710667,
                -0.0792032380007296,
                -0.06827264845288485,
                -0.06405223518512718,
                -0.0025961229979563245,
                0.03595580469319242,
                -0.003817699875342781,
                0.002350192720352501,
                -0.0325481381943975,
                -0.038272811887122754,
                0.011500368479299791,
                0.02186072378431913,
                -0.021465401088348074,
                -6.686636282758195e-05,
                0.046255527294228875,
                -0.0467152439286975,
                -0.014709314211589187,
                -0.002203625062000955,
                0.04947209715554672,
                0.03056432350284461,
                -0.04089630888248924,
                0.020507885120592286,
                0.04759017375758436,
                0.01940665037067007,
                0.0554950726652431,
                0.0563934972494285,
                0.08390335207777154,
                0.032766322108717515,
                -0.019585273086025954,
                -0.030175635848576233,
                0.018557336642258566,
                0.023254269264613825,
                0.04394756645251103,
                -0.03786517041927393,
                0.023946721097122946,
                0.004701251836255596,
                -0.004310310070505481
            ],
            [
                0.010836463085579402,
                -0.04012786102812467,
                -0.00816643672945326,
                0.05007025104602505,
                0.027027159345361394,
                0.026524623397812593,
                0.04264926017794376,
                0.023171431278072828,
                0.03515176189684454,
                -0.009992083836967577,
                -0.010086912997315962,
                0.04616718664662669,
                0.02204257251735709,
                -0.01140209789168539,
                -0.0008455883433719456,
                -0.04882315293209316,
                -0.027301029959102965,
                -0.0028989169845416787,
                -0.02082947251311942,
                0.04867077486286949,
                -0.038838120884666295,
                0.000561442260091409,
                -0.04950630346545219,
                -0.0229791135433739,
                -0.027836686071201336,
                0.010615625260298273,
                0.03911502028958238,
                0.00671180683799423,
                0.014556555325805819,
                -0.02223109518904748,
                -0.019307400265602116,
                -0.0001004862626414818,
                0.0069057544583505815,
                0.004627223828733572,
                -0.031370091301422605,
                -0.047890519504231774,
                -0.04711898917664738,
                0.0074613832968464305,
                -0.006172049421364038,
                -0.048772195333817964,
                -0.07131801634580028,
                0.021355556334074023,
                -0.010188280261194522,
                0.030244331151005478,
                0.055235775683483375,
                -0.021661987711625568,
                -0.0543326998312447,
                0.02084978851205718,
                -0.010161002671945335,
                0.029960755221259253,
                -0.040376272801886486,
                -0.026981289514263884,
                -0.002864617277800831,
                -0.03679220058004024,
                -0.014108396518940025,
                -0.04893545408722755,
                0.030484426816685582,
                -0.0403349783360885,
                0.009643895827090396,
                -0.024018264064002506,
                -0.04757570933918345,
                -0.03955090213957772,
                0.014378957330217669,
                0.010863634075190871,
                -0.0999657602352833,
                -0.07210157195192676,
                -0.08059705296552265,
                0.014993251763133505,
                -0.046976305337437844,
                0.014654792489839712,
                -0.018314845180316983,
                0.06637730439875136,
                0.10542256755316774,
                0.038373117822836256,
                0.003794154467059758,
                -0.07015700028174815,
                -0.04373951126384347,
                -0.03067818219122134,
                -0.09991559976244253,
                0.016796099985684387,
                0.045822396309781986,
                0.04713230196793966,
                0.03931517449589012,
                0.03873182026405184,
                0.040498622023147,
                0.048558521711656956,
                -0.016342005631464443,
                0.043372476688553256,
                0.051866854233969,
                0.051258356272953935,
                -0.0028704724240206153,
                -0.06615962589403662,
                -0.07013041617218026,
                -0.016612233250274257,
                0.00112917056258032,
                0.010914165263254352,
                0.0937279046320239,
                0.06590299372653585,
                0.0635964681616497,
                0.10098145767294282,
                0.014153545396336195,
                -0.026613726664457996,
                -0.02365205192663644,
                -0.03840209238409384,
                -0.07727559111997676,
                -0.10689124731730322,
                -0.0682546762693643,
                -0.041568915660415776,
                -0.020538194194153394,
                0.03683662968644616,
                -0.031205746331611533,
                0.021875290556877806,
                0.007619864340784634,
                -0.003028691985073974,
                0.029382097867516006,
                0.05267187376912808,
                -0.020963351907209025,
                0.06096445617315289,
                -0.022840070652754757,
                0.019842513794728237,
                0.10737779818030688,
                0.13401129629760034,
                0.2126076620067297,
                0.20072531228520119,
                0.18726857449322104,
                0.3443805188485764,
                0.28710411199554975,
                0.13113591626096632,
                0.04188563069504853,
                -0.000417391819270326,
                0.013021786506714572,
                -0.08139116661519033,
                -0.20884529419981732,
                -0.25613088200286643,
                -0.09828530354571217,
                -0.1252052118522654,
                0.018812060820912867,
                -0.007394724371126647,
                0.04870907418365038,
                0.045870779217188254,
                -0.01563010593449446,
                -0.04873493527845747,
                -0.013142383767475736,
                0.005995606014643417,
                0.05698639281560875,
                0.12429804955572253,
                0.17543756999968,
                0.22451858620888862,
                0.21431882364253652,
                0.09770372008817631,
                -0.026594622785731374,
                0.10221675200179535,
                0.19857235762622583,
                0.21340864425202363,
                0.1884396845220349,
                0.15420807576559936,
                0.19844070829517194,
                0.04505318024536109,
                0.05506459722079471,
                0.05321492033984969,
                -0.13686045166211414,
                -0.11806291036802513,
                -0.14549461574058897,
                -0.17029467043579438,
                -0.014772007677266316,
                0.07789333346654127,
                0.06737110790270583,
                0.03235244786177244,
                -0.02311374188233592,
                -0.027114113735583624,
                -0.028274857097749857,
                0.08688361273545808,
                0.23357521444645274,
                0.13175527173993545,
                0.2583931822911989,
                0.17467987439551091,
                0.25914051284979334,
                0.135735387772,
                0.10625239070563433,
                0.1101453388706618,
                0.13625082023665447,
                0.05626307002341679,
                -0.03508672641022682,
                0.09588179692054973,
                0.2027674928507709,
                -0.030958655914077274,
                0.13775292561157637,
                -0.094212624951485,
                -0.008096976602234301,
                -0.04732621070354147,
                -0.21470645630767393,
                -0.09895276049047062,
                -0.018377349883537734,
                0.11291573216748771,
                0.04301050021173429,
                -0.006915949916835404,
                0.011590136033115407,
                -0.013511154327994141,
                0.028627161749615222,
                0.10467311045418402,
                0.41534274898819323,
                0.31196086003017043,
                0.2291932163814857,
                0.07655843069082796,
                0.13315843867809973,
                0.07083840573084321,
                -0.02068178929298732,
                -0.09386283597356991,
                -0.029537702069925228,
                0.06504961625682074,
                -0.07358365355587565,
                -0.07801064423666136,
                0.03451845663694782,
                0.0036028538676829798,
                -0.15461002010950967,
                -0.08787595605835533,
                0.14415609622054146,
                0.11707250500253748,
                -0.04717020413605811,
                -0.06408196059610431,
                0.062453974973535206,
                -0.018765157579724977,
                -0.012561634423665622,
                -0.0017490105293538687,
                -0.028130025718200932,
                0.05099932446110455,
                0.01657308427945189,
                0.16347466767840124,
                0.44306462219666404,
                0.2274718017019157,
                0.1953117346940164,
                0.23359788917616656,
                0.06204403538078515,
                -0.026006006694190915,
                0.07862225423643818,
                0.05919636375120344,
                0.2250070612534963,
                0.08483094841860712,
                0.047371604737440294,
                0.1393802022826226,
                0.11565516733922349,
                0.06852602548027512,
                -0.04820619740032568,
                0.10037056987297625,
                -0.060760657186998565,
                0.09016297384807806,
                0.08956664890168045,
                -0.23836846104795115,
                -0.15605223978658417,
                -0.02578949913748607,
                0.030644071200803584,
                0.03903585876919666,
                0.0022491325037858234,
                0.04019229980253257,
                -0.015767917283992572,
                0.1487187520696447,
                0.23786665221766498,
                0.108077362825281,
                -0.04328105167196498,
                0.13978901472233946,
                0.0837615933224501,
                0.0856472977607377,
                -0.09316711815419022,
                -0.20491615161082746,
                -0.14833042204217609,
                -0.05432238594532664,
                0.029650882201955945,
                0.21967069906274747,
                0.1771251284890669,
                0.30974956224308564,
                0.1710135524074128,
                0.3360840677384176,
                0.17560849622410574,
                0.1854263475691287,
                0.13249991566948044,
                -0.16534961986210814,
                -0.19871585297134517,
                -0.03350384899931557,
                0.10944750901879165,
                0.0013434851658015814,
                -0.0013504574106326139,
                0.014479179462425613,
                -0.013691363779856566,
                0.1306158568802417,
                0.08219914656160618,
                -0.03233766526200936,
                0.013640719861543471,
                -0.2108862037940537,
                -0.29325162927655424,
                -0.3665302719734891,
