{
    "hidden_layer_0": {
        "biases": [
            0.2303879184164679,
            0.4431117206487529,
            0.2446502990247669,
            0.12761907686024584,
            -0.45656173997482163,
            0.04619200931070635,
            0.14826516748397217,
            0.6488390514607368,
            -0.5354242783460796,
            -0.2821408740519064
        ],
        "weights": [
            [
                0.009378722562230116,
                0.03477609175629633,
                0.03615796788440453,
                0.035077722611895824,
                0.012481818242982091,
                -0.011679211148302927,
                -0.02045209335821574,
                -0.04477875153280918,
                -0.022965182235471136,
                -0.0022561644203434802,
                0.0315338033554183,
                -0.0020226111132580424,
                -0.01058965687414966,
                0.03451011435446552,
                -0.016387688024366548,
                0.014969193985672341,
                -0.01330961462949673,
                0.04617964425868088,
                -0.03633005771493534,
                0.03738445785764482,
                -0.0026659905301364556,
                0.03039657625084239,
                0.0020685379129405726,
                0.01806956162800829,
                0.02228726344406847,
                0.008285250097510431,
                0.003775266162984056,
                0.026124122726482173,
                -0.039809343403407874,
                -0.0026667600056190857,
                -0.03168521802412019,
                0.023932350045999536,
                -0.028635106879784298,
                -0.03683783800506226,
                -0.016077309406309442,
                -0.03254109751367618,
                -0.03220550276532159,
                -0.01683929435015387,
                0.044481542584351184,
                -0.002452335156344606,
                0.014062109814411264,
                0.042344314695088675,
                -0.07824099764495196,
                -0.016101717347479522,
                -0.00905544729065869,
                -0.04950016179410333,
                -0.017179841090519794,
                0.007472415187006846,
                -0.0009996137616862114,
                -0.018287815746613163,
                -0.046057627621783566,
                0.013728592734230358,
                0.04636087723970502,
                0.015434152948589984,
                0.013643006837396006,
                0.0500328116550262,
                0.008268132150593993,
                -0.008650078865399521,
                -0.002555901186776394,
                0.012899434405858314,
                -0.016388461764932923,
                0.017696049871563434,
                -0.01776219065379341,
                0.02189020413970411,
                0.03737463770633441,
                0.030999809665966663,
                -0.02919921656548001,
                0.040626104858997536,
                0.06996491706267104,
                0.0853680500526916,
                0.0059905274465048355,
                -0.05422649672201317,
                -0.019627057124588607,
                0.028927271127253157,
                0.020488461859437007,
                -0.02652186845210209,
                0.036461602930223526,
                -0.027701540272997458,
                -0.021962160681959778,
                0.010566138640211617,
                0.040280132876620654,
                0.04595462618416723,
                -0.028605284272742226,
                0.006585069866860881,
                0.03688092841649345,
                0.0009060018797610453,
                0.04030361093348346,
                0.043247093466081035,
                -0.044637732146722627,
                -0.007864860603464115,
                -0.034903269404496735,
                0.06603275688783071,
                0.063616847153467,
                0.17204363750588678,
                0.15291561703297543,
                0.1968505553766219,
                0.21889506296357567,
                0.22089543536073405,
                0.15538198754133764,
                -0.06311237264906856,
                0.023068052884128287,
                0.05713405540152337,
                -0.07123201599405947,
                -0.010489656602059867,
                0.01933622904929102,
                -0.056048718076094954,
                -0.03279065394525562,
                -0.05486131450638124,
                0.02238970409938564,
                0.020268699166570828,
                -0.0049378573361838814,
                0.04834296367331183,
                -0.0387694617086243,
                0.02667015729803985,
                -0.015058260862277828,
                0.01750792447327485,
                -0.029707490121387518,
                0.009481930494124068,
                0.14366489080929776,
                0.14463400075718097,
                0.22912366347906143,
                0.3283156548178747,
                0.34885696641093283,
                0.3305268516168833,
                0.14079636435020138,
                0.3592627132769946,
                0.3151657640221502,
                0.15246125752916015,
                0.12430668931861795,
                0.16073117582708443,
                0.06846489678800774,
                0.12191720025084948,
                -0.02991662183919114,
                -0.15022787553833422,
                -0.19535952784658012,
                -0.19773393958140822,
                -0.11923743736049379,
                0.04288407891188891,
                -0.018796187140844182,
                -0.028071066449946766,
                -0.036237818111173555,
                -0.04068289098419122,
                0.04939952551781316,
                -0.008863298625328187,
                0.029373527394039683,
                0.07970190959363448,
                0.12858850605955263,
                0.21132177684106368,
                0.31076853425361617,
                0.136655268429598,
                0.2740894422500709,
                0.14568919281683063,
                0.10368201871352167,
                0.17892815533442458,
                0.1056336250112706,
                0.17032430975283788,
                0.34017997235048475,
                0.09868936251592518,
                -0.004942479857464605,
                -0.019590660233020397,
                -0.039856786562814106,
                -0.18926801062444504,
                -0.21903080595503002,
                -0.29340310226935906,
                -0.20887088125794237,
                -0.0588500410061166,
                0.02431773449227398,
                0.04355317241040938,
                0.025253737639641914,
                -0.016200045505906247,
                -0.0013844794337552172,
                0.015258813965523612,
                0.06450858606058275,
                0.14149287746493472,
                0.20946598672934252,
                0.23250114262957675,
                0.15951285653349062,
                0.027861147917288467,
                0.3013779122480911,
                0.20699687318506557,
                0.10279097714875783,
                0.3354590818941681,
                0.09805217828989204,
                0.13926689202477138,
                0.2566729686823173,
                -0.005925836171801592,
                0.19073827635506985,
                -0.047665835281934466,
                0.038897745619491816,
                -0.13836467673923633,
                -0.16520147552713085,
                -0.30566632835483254,
                -0.2945907893299333,
                -0.05827451635262299,
                -0.015134076926511862,
                0.043483214356113235,
                0.01823782797056414,
                -0.04172062039488489,
                -0.04050861045294739,
                0.08162260701271044,
                0.2597111810142409,
                0.2631905678391776,
                0.19180494140997,
                0.10875967956694797,
                0.07465613699223793,
                0.1607649034361412,
                0.19233168255507951,
                0.08310751206111926,
                0.07197182010537144,
                0.30775512341809497,
                0.30354063577291274,
                0.09473018164169521,
                0.14418149619062437,
                -0.09897163869289807,
                -0.06969092625523193,
                0.07435792730181984,
                -0.10285183854577687,
                -0.049962915593746146,
                -0.01610305484503411,
                -0.2870466439103182,
                -0.35621591075279607,
                -0.09975737376492037,
                -0.021977696621651704,
                0.03700336244678056,
                0.018880453396251908,
                -0.002496403310243712,
                0.0054519279856714105,
                0.12050074636343736,
                0.18971045578574167,
                0.18401261052028417,
                0.011762585955696703,
                0.08128463962718786,
                0.025269204997545876,
                0.11946735389350845,
                0.1900220816464311,
                0.1413922394997978,
                0.19659849304892993,
                0.17855635679119145,
                0.38515913945788677,
                0.3238557069954285,
                0.0988857481060805,
                0.13268675669894892,
                0.09881238213759617,
                0.07578919650451969,
                0.05886906142058855,
                0.0508434145768207,
                0.06392535007993275,
                -0.33252925151152113,
                -0.4249660052570598,
                -0.16558655974720943,
                0.007480642369915976,
                -0.04915886636107655,
                0.024606831071725618,
                -0.04258863418233019,
                -0.005615616339807559,
                0.08804562896597981,
                0.15133058334614974,
                0.03997977066452625,
                0.02728037964572277,
                0.0833564994230305,
                0.008303577102811441,
                0.05105711704136997,
                -0.09284571180024857,
                -0.32973747615729215,
                -0.2585843087832335,
                -0.14783687663186304,
                0.2316771448605314,
                0.285139532093455,
                0.28132776405820786,
                0.07454834810247339,
                0.0785000841937619,
                0.142027335646038,
                0.2193557653096062,
                0.044733097642543435,
                -0.05007393632077161,
                -0.2493033230087611,
                -0.32495901333882243,
                -0.12978594153054976,
                0.007148014722393162,
                -0.0023010882206733175,
                0.03440266836516419,
                -0.03239401930037266,
                0.04088264979386536,
                0.038606467702565386,
                -0.0018275531090384072,
                -0.08023313160321846,
                -0.0013094109671717463,
                -0.25284518390385885,
                -0.3491206181042805,
                -0.4429349295864608,
                -0.5345631760082289,
                -0.48172283317978876,
                -0.6237150706697315,
                -0.6514280734470138,
                -0.1529666340819279,
                0.11607463543304679,
                0.17122303251471246,
                0.2073892496244994,
                0.15880432749902595,
                0.14575549699438317,
                0.17375746922218083,
                -0.020909613572939533,
                -0.15182642481056974,
                -0.11472465498121513,
                -0.14070033976149568,
                -0.05614439465000674,
                -0.025732700079858076,
                0.045713623606850586,
                -0.049495232081906204,
                0.0011768892815880022,
                -0.03291388185409608,
                0.009643876892833112,
                -0.21679162524447732,
                -0.3999960126739196,
                -0.5823582072887649,
                -0.966526668793618,
                -0.8041389975009746,
                -0.7438974724700161,
                -0.6295745600438847,
                -0.3232497988468933,
                -0.22523040670025024,
                -0.5506170629711336,
                -0.29861305693244905,
                -0.14988062634890073,
                0.009110644502510314,
                0.008468793531347028,
                0.10217121454300232,
                0.2603302415663532,
                0.1188707023713768,
                0.1404263999463697,
                0.08684556691015018,
                0.03291285619017142,
                -0.006598621329062462,
                -0.06016982948421025,
                0.027109026221522847,
                0.01885566592740786,
                -0.032489803620180766,
                -0.058635361571284066,
                -0.08009376243041472,
                -0.009897177971301876,
                -0.3343806106161759,
                -0.5884992551302863,
                -0.930804964573677,
                -0.9282158038613246,
                -0.6285424426318742,
                -0.46518873301564284,
                -0.21529802859949113,
                -0.1839055686834107,
                -0.20520083752453236,
                -0.43032298239711914,
                -0.3439897260482115,
                -0.23051417947036762,
                0.016225503179992867,
                -0.18208859867166283,
                -0.07483824376558684,
                -0.04710042261379283,
                -0.0002904926878125795,
                -0.05580934747488029,
                -0.07752636731239952,
                0.027752279517468906,
                0.08728141889755332,
                0.05216496024460137,
                -0.044433723652469996,
                0.04235992322161602,
                -0.04212621530289704,
                0.002315565121921695,
                0.006400516934893697,
                -0.10177803563260375,
                -0.32444260778145106,
                -0.6098233708133365,
                -0.6476450561038836,
                -0.4130235417584154,
                -0.34880999705153903,
                -0.10212386595887443,
                0.07984746621327271,
                -0.000973748693184242,
                -0.05425505045550838,
                -0.016669500805430875,
                -0.1367568999523324,
                -0.14249972287524407,
                -0.06999394486297435,
                -0.025425466690246014,
                0.004956749371629825,
                -0.1156922415264662,
                -0.11828264498808488,
                -0.06816211388645443,
                -0.13318355035344406,
                0.02834326862465992,
                0.1430396053807936,
                0.11598542896808188,
                0.053739229916510985,
                -0.0011420567660835287,
                0.02300080343056523,
                0.008202374074052823,
                -0.049332905314446694,
                -0.07674217191667455,
                -0.21437057791748215,
                -0.34166077261162275,
                -0.16745284317610276,
                0.15687309335124258,
                0.14044639749658208,
                0.18582788821391,
                0.15173484620919864,
                0.09038181005946352,
                -0.014171438700279723,
                -0.008583524377407059,
                -0.1568031704957414,
                -0.23441647100014257,
                -0.07074058768654448,
                -0.13340436942536824,
                0.1058198297773049,
                0.052421695059837334,
                0.1257004973095722,
                -0.050775233529823674,
                -0.06166373220649161,
                0.012704688650942233,
                0.014545969375046137,
                0.08299609620388387,
                0.11153384249164423,
                -0.022813329229473208,
                -0.012695274405265529,
                -0.04578435971797929,
                -0.03719565288338036,
                0.04357523257955903,
                -0.007460246524006679,
                0.10458645307923836,
                0.14671378978232597,
                0.17597772624726535,
                0.30093442519598024,
                0.04564099202507096,
                0.026461669690935594,
                -0.037007220971112614,
                -0.1558132850963994,
                -0.012472791290077254,
                -0.14228641683382834,
                -0.09688285075150141,
                0.052691258762256866,
                0.01952684067747538,
                -0.32851614703712534,
                -0.02808559803132376,
                0.05884482891236331,
                -0.02690417565440719,
                -0.09042639696964899,
                0.0867316127028454,
                0.13670295638389723,
                0.21105272215848722,
                0.03798913223730656,
                -0.0005753840994983637,
                0.01991430995285478,
                0.04105945086655604,
                -0.027621977777527014,
                -0.004675321723795322,
                0.04738065326775853,
                0.16896398958820477,
                0.287695118625184,
                0.018729754393397136,
                -0.11670298170828926,
                0.15393541415465978,
                0.05217922032722859,
                0.02709701966778383,
                0.06041361766754363,
                0.1288214594425588,
                -0.07425623622970172,
                -0.0622294093703714,
                -0.03532387899687207,
                0.06787745652168227,
                0.12334748451380732,
                0.1660772994496042,
                -0.09776929664231421,
                0.033472705964758945,
                -0.03381956943208024,
                0.08051774547977358,
                0.23477542696816933,
                0.25657937005259174,
                0.07957039775677177,
                -0.01455199788944215,
                -0.03547359795844427,
                -0.03698975594305913,
                0.04948187735106201,
                0.06119944445804718,
                0.22284107848864534,
                0.17632052651916838,
                0.20750125708361297,
                0.08665017450100192,
                -0.09901891492352029,
                0.017125191951146698,
                -0.024310139608910736,
                0.0048795152968089004,
                -0.022096893101994575,
                -0.20437313761514642,
                -0.15426780456126368,
                0.052258211448979956,
                0.0761255046653925,
                0.045401627326831916,
                0.12253414264972182,
                -0.01295475826799348,
                -0.060000884135584236,
                -0.1200846845245852,
                0.000899289508764599,
                0.10653895901223863,
                0.26481785169523464,
                0.357043685456716,
                0.029999561116594676,
                0.03354296448328928,
                -0.01729408811802049,
                0.04715019876572267,
                -0.03356955790991591,
                0.11377061622255973,
                0.277501114407255,
                0.32031724956384167,
                0.08995551427563445,
                0.17014247022548623,
                0.05350343742139112,
                -0.23176356561350747,
                -0.049447838768990615,
                -0.04814872301359223,
                -0.014110910257637001,
                -0.1163732590061531,
                -0.11042813870658046,
                0.12537290025598885,
                0.17212052775318917,
                0.21243439284749008,
                0.11890419588816592,
                -0.007598278653759054,
                -0.11405191834312119,
                0.04302212019415385,
                0.1598816088871958,
                0.19432164502648966,
                0.2680420479171618,
                0.19390747019772264,
                0.020073937890728935,
                0.05161107525166732,
                -0.0496718039260252,
                0.04877184180905562,
                -0.005532011237326587,
                0.05520282546300738,
                0.22403543152917363,
                0.24035846723223403,
                0.1097568887676104,
                0.22765646491499222,
                0.058523071559196185,
                0.016972838502331895,
                0.04795090632359711,
                0.041269444942251016,
                0.08039913582164683,
                0.00568282664462437,
                -0.008598861919624601,
                0.07346405585261612,
                0.05830634977225714,
                0.11158018138678329,
                0.09624041016232256,
                0.07251704686859665,
                0.15325629898498977,
                0.14441670099779333,
                0.17928547358165425,
                0.14127449628155198,
                0.19948879609082346,
                0.1584247466695529,
                0.059917858166343936,
                0.04015230863657693,
                -0.017343984805943263,
                -0.006007626152904762,
                0.026802983148499736,
                0.20752356518653828,
                0.3910967955476029,
                0.33591422377181646,
                0.17498962303242868,
                0.26477627706833506,
                -0.03197278528458632,
                0.13095262397543464,
                0.06761489351437505,
                0.03547446338340353,
                -0.006021453692082987,
                -0.058351280650830006,
                0.06293612100612994,
                0.025831273833797325,
                0.034364224349852805,
                -0.134305462927203,
                0.0647216236998525,
                0.07177833834015697,
                0.05922772980715011,
                0.041291085774886674,
                0.08363397569867474,
                0.22037352912450336,
                0.23004990001548953,
                0.11750068055967604,
                0.00234441816829792,
                0.0016448626536256158,
                -0.0025656766205556366,
                -0.031079172165382935,
                0.04691980323871765,
                0.12834800515927897,
                0.24567864415858784,
                0.10556041919763119,
                0.0903614561710507,
                -0.08768650095294082,
                -0.03247337903307528,
                0.012962259799562852,
                -0.13615801350944098,
                -0.02316920546075114,
                0.14334911352257568,
                0.01650079587351263,
                -0.005307871502338344,
                -0.045978083683595246,
                0.07761906529845551,
                0.03760237384304945,
                0.08202983632360558,
                0.18284610554619737,
                0.0949802339823763,
                0.13087813518707198,
                0.1812823839395832,
                0.19320696750712998,
                0.14579391605137867,
                0.0838510887949762,
                0.0272117493074741,
                0.015385811548201447,
                0.03249193729810948,
                -0.009795330776532534,
                -0.015733673493621217,
                0.16944435289343665,
                0.1809659966612735,
                0.11153581898660546,
                0.04237537148535885,
                0.04088300113905467,
                0.08616823804623985,
                0.14581607984869704,
                0.059202748316180984,
                0.12670558171169294,
                -0.042915889506909534,
                0.02402905776887495,
                -0.17273302425463044,
                -0.12300320124009304,
                -0.041784548959887355,
                -0.0037644053371332473,
                -0.10328996686250726,
                -0.035455548804651404,
                0.1922332843686804,
                0.09468721388169017,
                0.188722587531494,
                0.22735842572389178,
                0.09316741197564242,
                0.06376245374297515,
                0.04079376023393648,
                0.028378853951540578,
                -0.029139476119598814,
                0.02676848122624336,
                -0.0278856846849924,
                0.09973334915814022,
                0.11635536903211187,
                0.08464096524767975,
                0.1286307178480443,
                0.27170023341295213,
                0.0032308820711430377,
                0.21009640358372642,
                0.1164728383780674,
                0.0446645117177404,
                -0.0895797131168057,
                -0.07293505392183372,
                -0.08671891107325401,
                -0.10498564707656553,
                -0.17906053604428596,
                -0.21027114368343533,
                0.11289906824272603,
                0.047890635416530464,
                0.056761705541806914,
                0.08799569155217012,
                0.07538850747155747,
                0.08647190914109568,
                0.06342037373343082,
                0.03267493119903662,
                -0.04901025988230775,
                -0.012651887577244204,
                0.01632480133934785,
                0.012663090324866073,
                0.034673245837343304,
                0.03784877765293751,
                0.08334136272358986,
                0.06139865153382903,
                0.0744384743462882,
                0.10784187406551737,
                -0.0031411492259292534,
                -0.004755503306797787,
                -0.055364340861967995,
                0.033285237045779625,
                0.09934285632178066,
                0.10407653965845969,
                0.15301004810459515,
                -0.058013713654419735,
                -0.10431005148684153,
                -0.10095028737618854,
                -0.039312134856611135,
                -0.22692089062027204,
                -0.18655856415643687,
                -0.09709488041325749,
                0.03050215811716676,
                0.0372968343450226,
                0.024392318995163777,
                0.06179570494328786,
                0.027342252931265514,
                0.02227664356069762,
                0.01347693266473509,
                -0.01945795034051479,
                0.0036975023663287886,
                -0.030712520345561507,
                0.004836871229249068,
                0.004505749279885388,
                0.02341431280864333,
                0.05866283366156655,
                0.01697601717173082,
                0.12226557806931711,
                0.17271926495112525,
                0.22844632069750154,
                0.22336215558697475,
                0.15002180653195235,
                -0.0651528265705825,
                -0.07348909095874682,
                -0.17793443167895773,
                -0.08309113251207453,
                -0.15570068349108734,
                -0.1979320766574698,
                -0.23006381307919208,
                -0.2288515992419832,
                -0.09541031813179035,
                -0.08740725421316207,
                0.020103930165479525,
                0.015760643712354545,
                -0.031040172233840195,
                0.04223366457420052,
                0.0080489854042778,
                -0.004454930534183998,
                0.014379698288912855,
                -0.02484720411829139,
                0.0046573469391598035,
                -0.059299955464873745,
                -0.0525321068537841,
                -0.007793965776739803,
                -0.06670918825337616,
                -0.0005134657786204117,
                0.0067429316409189435,
                0.004997093937901014,
                0.03513598513598644,
                -0.025313479444070284,
                -0.06292631072767312,
                -0.03603640486933657,
                -0.08337123164680214,
                0.0004904225004470125,
                0.02118891270068465,
                -0.006416563955217178,
                -0.05178429018333997,
                -0.011493675004332151,
                0.023024215983856948,
                -0.012275767662857404,
                -0.008590808390703118,
                0.0441050250436418,
                0.02244397521442463,
                -0.04718409024059905,
                -0.007480588580518123,
                -0.04102285349387076,
                0.04834060228326068,
                0.007597606499307012,
                0.014513678401333434,
                -0.013691336462362584,
                0.01666407250695522,
                0.006665412839546235,
                0.02643196289972196,
                0.03832114183011272,
                -0.013472174691460519,
                0.03700657084970821,
                -0.04518141359944392,
                0.015354896902615342,
                -0.033342417354815,
                -0.000586246401356474,
                0.0240469323360274,
                0.020415629688251554,
                0.016737723275718614,
                -0.0026761246655852477,
                -0.03078884692352908,
                -0.030244804211860054,
                0.002882843007097618,
                -0.006281709045249259,
                0.047981216620881624,
                -0.020119821928150153,
                -0.04253046228557716,
                0.022918135387336426
            ],
            [
                0.028495330064881412,
                -0.0255522917314626,
                -0.046814409643903064,
                -0.009402304477218078,
                0.03815859182017662,
                -0.006869664950054831,
                -0.021810594338552983,
                0.04397213123397758,
                0.027502976565358474,
                0.011211330365970426,
                -0.05023720244188029,
                0.043588591262201264,
                0.017223039348351735,
                -0.02659208987066711,
                -0.04580463971507021,
                -0.04966144041819906,
                0.04317417765263978,
                0.01951137997636731,
                0.020723030771041435,
                0.009704029302516896,
                0.0037613688174588378,
                -0.004487243064971759,
                0.010121042535115296,
                0.015564625122310223,
                -0.012824919409659373,
                0.01699419780807513,
                -0.004355308455069283,
                -0.04191458249031955,
                -0.026953520943129756,
                -0.042287842017189374,
                -0.017978963708096526,
                0.011245767826953981,
                -0.013381862237601436,
                0.022809526934924825,
                0.014218565329981546,
                -0.0457393669737168,
                -0.04147059295175123,
                -0.051876477071273,
                -0.038778543020606675,
                -0.03464425007978761,
                -0.054631924511192226,
                -0.007076877569520883,
                0.018800868967821693,
                -0.05003381922870198,
                -0.03738322185189637,
                0.002414051652930877,
                -0.002789820920423967,
                0.013741130396563926,
                -0.005220986555470916,
                -0.05382180993801837,
                -0.05154728267608884,
                -0.04848310474674716,
                0.0017311263919291692,
                0.02576961557256268,
                -0.047247532728916235,
                -0.00437521369671344,
                0.032809523178825205,
                0.017031762121703438,
                0.004638309996146156,
                0.008959042158170007,
                0.0387156997482973,
                0.007358384164066328,
                -0.01263271485289878,
                -0.001445689174980627,
                -0.05151902864908275,
                0.0013550666228970012,
                -0.057045674393054385,
                -0.12706107981674078,
                -0.0816304274948167,
                -0.13561258538471183,
                0.006769207475022088,
                0.06441121376226959,
                2.0379366126886304e-06,
                -0.08681006744564004,
                -0.03058308454160802,
                -0.0707960913419474,
                -0.02544818102335511,
                -0.030752898788060094,
                -0.09908943029892665,
                -0.03810252460758062,
                -0.003105638927762793,
                -0.025476474110753967,
                -0.030202522304331205,
                0.013925533947962941,
                0.026339077476061463,
                -0.014231972799332082,
                0.021562950480419906,
                0.008877243316624676,
                0.03058885114077716,
                -0.037571908405761106,
                0.014538667514414624,
                -0.06345647166320138,
                -0.058383055849179175,
                0.03525806209434564,
                -0.11475515126770541,
                -0.08610905464420184,
                0.03589329030708525,
                -0.11915889261845039,
                -0.1805835197444286,
                -0.0781572573074872,
                -0.012894678759069805,
                0.004374657642129066,
                0.002733707596664386,
                0.06109248595750119,
                -0.017506265012909143,
                -0.08185945684265991,
                -0.11487707736274483,
                -0.08809093686367496,
                -0.06739798052960869,
                -0.04033722529418648,
                -0.0006824592458824466,
                0.04370581899291382,
                0.02658367998379247,
                -0.019056354814867893,
                0.04080508792190401,
                0.020006264621379492,
                -0.00020655196543872156,
                -0.035868672923442965,
                -0.010334805202811655,
                -0.036275839351551147,
                -0.004936188543364117,
                0.05668789653551076,
                -0.05475188505565551,
                0.10307529099040862,
                0.12964402204477038,
                -0.016110411061814635,
                0.02308644945827337,
                0.01603857917028173,
                0.11100332256179796,
                0.12120622122241943,
                0.04937520548150201,
                -0.09363766969373105,
                -0.17105569318471522,
                -0.0842496817788236,
                -0.04548671540702297,
                -0.02413898559547236,
                0.07917417379062337,
                0.01039106985462386,
                -0.0194079867374027,
                0.013504758558014281,
                0.023398538572955853,
                -0.02585662905796822,
                0.047078656590272334,
                0.015499444047131503,
                -0.04264038732469493,
                -0.0018401169977783109,
                -0.10305982943902112,
                0.053291533904776894,
                -0.0030040896988931896,
                0.08946088346980706,
                -0.05774026991068595,
                0.046124138460168086,
                0.09645485389672262,
                -0.082472992834616,
                0.0038236580365991536,
                -0.03146075927962324,
                0.09136359821972465,
                0.16873108084683175,
                0.0770501644342563,
                0.10079429225618995,
                0.1752439554340118,
                0.12581607451426366,
                -0.03605364401240213,
                0.11315556961660186,
                0.14736175864247633,
                0.1282804219423726,
                0.08702260694325817,
                0.05012851006781887,
                0.020296799972248154,
                -0.005989258717020752,
                -0.03198614203877656,
                -0.025251585496956164,
                -0.021528609670793366,
                -0.10367920250096337,
                -0.11361197892257868,
                -0.004184337346821759,
                0.014051755943216903,
                0.03619030009584936,
                -0.06862894500819124,
                -0.022646190040497335,
                0.17522137671488003,
                0.003201730453402397,
                0.00798172338556836,
                -0.08783404480121856,
                -0.12475072836931005,
                -0.11121004177004773,
                -0.19466819245634495,
                0.09291285091100561,
                0.14567322520041448,
                -0.08389384558971877,
                0.07269722181905333,
                0.18091017207032417,
                0.4274093744926167,
                0.27830902771342336,
                0.09856762562134808,
                -0.016429920751858722,
                -0.03673348993538321,
                0.018033207755495682,
                -0.0070363015952216185,
                -0.05973236472584585,
                -0.11793966558982377,
                -0.15495714931902538,
                -0.050513856085663465,
                0.04815638582035633,
                0.17376809114083486,
                0.09515560173558048,
                0.04062746527540872,
                0.1891047738119466,
                -0.1358842605722309,
                -0.06916298821308123,
                -0.038828625113577764,
                -0.08242369167729634,
                -0.19411383336372046,
                -0.14055361140284744,
                0.008824720198621848,
                0.014120055964789931,
                0.049639873373298976,
                0.1624441928686444,
                0.1739112691445387,
                0.3039417325233778,
                0.4719707793097179,
                0.3076838017281091,
                0.05258627754753173,
                -0.021317703612641813,
                -0.027799493599475443,
                0.006270624633520154,
                -0.012292439985796362,
                -0.0856515612685859,
                -0.20768900401983836,
                -0.09243994551947513,
                -0.021878351889712596,
                0.07531199738690098,
                0.18081784408616247,
                0.14763995954637402,
                0.08428777332551447,
                -0.023891056092366306,
                0.036271093894733764,
                0.035502747879223466,
                -0.09541461061000345,
                -0.023594582603479568,
                -0.044660663963923666,
                -0.14793792837115566,
                -0.0459452382724459,
                0.16587668991478777,
                0.23417454873700772,
                0.22516044089219714,
                0.09651974681607617,
                0.2161076448517712,
                0.5525548586360445,
                0.37337336906656693,
                0.12111240246495382,
                0.058408594665113146,
                -0.005044694816526244,
                0.036258764150391504,
                -0.1131550407716103,
                -0.13662783391720185,
                -0.06834817471303292,
                0.009199930939515301,
                0.13113892091694443,
                0.0783445060598318,
                0.07142650121951441,
                0.1885379495688178,
                0.0659502307837188,
                0.20182155451317071,
                0.11687950129455364,
                -0.06792809633616136,
                -0.1496438173258996,
                -0.2337536453000021,
                -0.27619197685852104,
                -0.21130869892438373,
                -0.1407560193531386,
                -0.04355185837831849,
                -0.0034471305582430972,
                0.23104754013531476,
                0.27598240542987845,
                0.32999788951761033,
                0.7002394635164454,
                0.5579902812601165,
                0.1990033256249294,
                0.04632030405119195,
                -0.044404479162225986,
                0.040201223546139475,
                -0.0618356274352392,
                -0.11185224921597635,
                -0.04766717558189407,
                0.17279442253196103,
                0.151725702909715,
                0.017540560430654453,
                0.06193074533134169,
                0.1492349752123387,
                0.20002350730919727,
                0.06934947535101735,
                0.12248377121096357,
                0.012121222390291491,
                0.02978384145912301,
                -0.1602874455475219,
                -0.2285879037094339,
                -0.1192452365016592,
                -0.11338275206949772,
                -0.11049263256082045,
                -0.11893103594532353,
                -0.03797121444393991,
                0.22537594819057288,
                0.24048496413634726,
                0.4260169904656907,
                0.5459107650934333,
                0.22031225102563765,
                -0.033938953371588754,
                -0.040370845712597775,
                -0.028711739000939103,
                -0.06822457077162333,
                -0.07058508508261459,
                0.08167033412089938,
                0.09659440155857348,
                0.08612162404857245,
                -0.06484232599160063,
                0.05475065065334997,
                0.07975545701330333,
                0.11663276912830012,
                0.034104894716747894,
                0.12488290394489872,
                0.07635121803284071,
                0.19773160704581463,
                -0.05081136169436753,
                -0.12721242015602122,
                -0.11419755541644178,
                -0.11029642351111858,
                -0.15999388281215698,
                -0.39023893876104077,
                -0.44871911530639425,
                -0.3668748739324476,
                -0.23880388473319666,
                -0.07901817830198257,
                0.16691690386903427,
                0.09138273904127528,
                0.05692801006505532,
                0.01710486980445562,
                -0.055825415646168094,
                -0.0726577655947866,
                -0.05484311837996583,
                -0.0192455893418978,
                0.12942028633605154,
                0.010195361978060098,
                -0.06422528931329524,
                0.004859639069703191,
                -0.04955643034625227,
                0.11248819241239688,
                0.1012180230263569,
                0.2424798462789391,
                0.1744953763739347,
                0.1605192948516284,
                0.14681807988606466,
                -0.12492429453301598,
                -0.09112672804140085,
                0.03164439810188525,
                0.12379644674854702,
                0.030285523305111698,
                -0.16342668317775477,
                -0.49724293628260313,
                -0.5841066580236157,
                -0.39376719854283143,
                -0.01802902017072893,
                0.023681154892457146,
                0.02823297827133457,
                0.027237123454905664,
                -0.023088660100870538,
                -0.05276030858689135,
                0.055964912034672715,
                -0.011943167764428624,
                0.02816319461131838,
                -0.02496768127158497,
                -0.01319155878019428,
                -0.0018661909882370052,
                0.1255588903126363,
                -0.06276769858905071,
                0.15749606571556846,
                0.05564828014770366,
                0.11310865013568758,
                0.059408535667665005,
                -0.006066378988793335,
                -0.012111562586212588,
                0.12493507662223702,
                0.045617999051977665,
                0.007726612305559332,
                0.14763363158325277,
                -0.007709115291880313,
                -0.26150953922932546,
                -0.49524437864497,
                -0.41930026343936977,
                -0.03736630157619647,
                0.08631618007499882,
                0.04112645296665756,
                0.011184408424043241,
                0.021312940198097388,
                0.016142757169433312,
                0.03081787683523284,
                0.06183281402562652,
                -0.024557911415251963,
                -0.08758546460360565,
                -0.15152605390916277,
                -0.05317584949092028,
                0.012535624635739573,
                0.09893100817334238,
                0.05577012722193155,
                -0.034297275863530215,
                0.08892944347554016,
                0.20140148363551175,
                0.12140768503019976,
                -0.04969442585433523,
                -0.0806278085381644,
                -0.20121301511920123,
                -0.20400634928053724,
                -0.21524003904885514,
                -0.21267628404414532,
                -0.1532313113029444,
                -0.3169064841594949,
                -0.2959167574284931,
                -0.037641770175827385,
                0.07522560802705586,
                -0.019871234278919535,
                -0.003435940497958202,
                0.017359356717169712,
                0.03596821594994927,
                0.12007954381805197,
                -0.04283450941587985,
                -0.0986192765761106,
                -0.08833083252264493,
                -0.13544223528576882,
                -0.041795204919631526,
                0.0009346303109805618,
                -0.1782363427941551,
                -0.05947209346885222,
                0.13708224893114418,
                0.21746882947518145,
                0.11732593927983764,
                0.031200438254365914,
                -0.0091538665703953,
                -0.22125753712188695,
                -0.17094494507224967,
                -0.14378122790247183,
                -0.27711049866243836,
                -0.0721694864839382,
                -0.17525670015308148,
                -0.17192045123144603,
                -0.08789264038755441,
                0.09494452852415239,
                0.061516862154346534,
                -0.03278462603214964,
                0.02034507955706842,
                0.011726426752282719,
                -0.04585456540288482,
                0.10105148735440811,
                -0.018814809566860855,
                -0.14801202311852402,
                -0.09620662078066641,
                -0.2472132173070304,
                -0.1661283740271908,
                -0.09221552412667915,
                -0.09645338377551317,
                -0.1435630770954013,
                0.05202593868720287,
                0.31877683764059894,
                0.046150873412357143,
                -0.0831493996917874,
                -0.05183140532914177,
                -0.0594369672897084,
                -0.03823790746013021,
                -0.06059685297860941,
                -0.018398890503246494,
                -0.05252566653785139,
                -0.02111397156372395,
                0.07828754869537694,
                0.18435656186458363,
                0.13975504558902316,
                0.05584065908037346,
                -0.013907021518191147,
                0.04978907449201201,
                -0.00028168569133326873,
                0.05146678355509723,
                0.08625375645513217,
                0.14467079907290137,
                0.03275124405825755,
                -0.03548600067181916,
                -0.20144029168662939,
                -0.1663514132967577,
                0.0035621419837195464,
                -0.07613832090440992,
                -0.09153232865589153,
                0.07569527471121534,
                0.027276473797300697,
                -0.010888583581944524,
                -0.14767472083972494,
                -0.004330399939251555,
                0.06125755685883333,
                0.08046587308619367,
                0.09918584758435468,
                0.11983914204209105,
                0.027084389366170584,
                -0.03304370765046704,
                0.013265633269822177,
                0.19246127717457356,
                0.1579810926231229,
                0.05109379721607405,
                -0.007136701857507726,
                -0.004873549179779678,
                -0.010732278815714744,
                -0.018229131909051816,
                0.03850908309392551,
                0.1476559709486435,
                0.10944738996230777,
                0.14509001700384522,
                0.039213860967095025,
                -0.21525403152223693,
                -0.0623737540109877,
                -0.1995922670457708,
                -0.12655876403987332,
                0.15526114356530998,
                0.3026243509614705,
                0.0781327019263686,
                0.04009990637603759,
                0.022836965307040394,
                0.008816260250679416,
                0.08471783237674721,
                0.022787534031279408,
                0.1209377248638207,
                -0.02232455160750596,
                0.0760464730718921,
                0.19362437330264143,
                0.25989653764833825,
                0.05121675261813117,
                -0.01025556767970305,
                0.034243440246532204,
                0.0295811389512616,
                0.003325018555779498,
                0.0067184976190758725,
                0.02709427903345657,
                0.05153173167813957,
                0.14167248962679038,
                0.20356705455271967,
                0.13528639321187713,
                -0.02292488604626899,
                0.09362216082099714,
                -0.0015711962732286291,
                -0.01654988170067302,
                -0.00830019462864146,
                0.2126920029846172,
                0.06461533691655968,
                0.1630549384713925,
                0.04620343635915091,
                0.021521755880582798,
                0.04342843392362035,
                -0.04240295871238684,
                0.010338799616304958,
                0.055465085878504995,
                0.2055474062122722,
                0.2555066276993925,
                0.15930385857993168,
                0.05929419894928267,
                0.018039571899635204,
                0.005022532491139769,
                0.014797784496017284,
                -0.0022799464462325476,
                0.011982434923907328,
                -0.021332134939817404,
                -0.003364170444504081,
                0.13548935914077173,
                0.09628023067914039,
                0.23374208625111348,
                0.2221890701287252,
                0.14397936434142478,
                0.042072545344167836,
                0.16952701530002878,
                -0.07467799768293573,
                -0.016904043863824627,
                0.014416974469071121,
                0.14893680155484504,
                0.060104883213047494,
                0.043810775714810596,
                0.16149707848836445,
                0.0772218811605,
                0.10410517436076114,
                0.034752117506138686,
                0.30526388301783874,
                0.33994521829291324,
                0.1426510530026618,
                0.047967331038727405,
                0.008013647568343342,
                0.03065308078600713,
                0.024598906290242858,
                0.03811511498048487,
                0.029380642125857913,
                -0.019706360092544943,
                0.07701193678135514,
                0.07883159288273454,
                0.06693931394569912,
                0.1345145040119989,
                0.08275396147258103,
                0.13992286819958144,
                -0.053709648896959825,
                0.06024186044705136,
                -0.015967321765250928,
                -0.08460672254889036,
                0.04658376253827447,
                -0.025119208225158812,
                0.08036755382255305,
                0.1483230348246891,
                0.055780258638677443,
                -0.015526518694725735,
                0.01930428032473111,
                0.15411710443312412,
                0.312471628374707,
                0.24242239617748862,
                0.013541983351459258,
                0.028503851415984712,
                -0.009274158305361343,
                -0.00704621240319635,
                0.03528688221495067,
                -0.04825652092579823,
                0.024035131335078865,
                0.050365477928961816,
                0.09949205801331668,
                0.0058980713837976494,
                -0.021175193480525344,
                0.010957383698417542,
                -0.08463907644787934,
                -0.02012759316607651,
                -0.04962052450284729,
                0.13849078552599492,
                0.10938003937724651,
                -0.10280572673644178,
                0.05798956387757033,
                -0.0364922275675469,
                0.027688733656907483,
                0.11006887435174213,
                0.11100136758395725,
                0.03633974236476769,
                0.11699071434684861,
                0.2521524443592958,
                0.14508814254021699,
                0.2374936709992482,
                0.1111510341749998,
                0.03266029725472266,
                -0.04259905972658472,
                0.02137826496716535,
                0.007054321006781154,
                -0.03521536695299941,
                0.013777697308736927,
                0.031215869719477998,
                0.0731944471754023,
                -0.07517991949745688,
                -0.10485115769316086,
                -0.11194710168403717,
                0.007316815422874783,
                0.12512302439169112,
                0.07376388917462641,
                0.14508950429459733,
                0.2311766163919133,
                0.0600333963914658,
                -0.05289989632071791,
                0.08899832703686263,
                0.18439192129227516,
                -0.003893670761219143,
                0.0647924769155852,
                0.08932576005026764,
                0.28004821550687453,
                0.02363228386202207,
                0.04670305417524345,
                0.04081412661977749,
                0.031182037776281694,
                -0.01729805768739444,
                0.036452203648695454,
                0.04539321453947275,
                -0.02374281472012588,
                -0.04026730244143002,
                -0.02198677504613559,
                -0.037356414901556306,
                -0.090701566200107,
                -0.09568036442417709,
                -0.07742730970024997,
                -0.10689535045661093,
                -0.030471508972122134,
                0.20778094200314987,
                -0.06043902053824091,
                0.042015819425966404,
                0.08320049983854555,
                0.1712437493324677,
                0.2725211619036338,
                0.10761361035014437,
                0.04871475219174157,
                0.04199542670762731,
                0.14334819914303626,
                0.11499338205148388,
                0.02455455395394071,
                -0.21872131886787205,
                -0.06090114571807914,
                0.018068300115361344,
                0.00888876270377226,
                0.02087298371924641,
                -0.003882950098536251,
                -0.019464976388459548,
                0.013724719269386322,
                -0.001754859687310699,
                0.0483791557323502,
                -0.03338925746161352,
                -0.037390508570771856,
                -0.060541134652529985,
                -0.03834512110790231,
                -0.08568067782845093,
                -0.08219931294351603,
                -0.07131614004282917,
                -0.03787623437695909,
                -0.058348723032190665,
                0.07142365954912266,
                0.0650737561360486,
                0.06480047015750147,
                -0.009054395552591929,
                -0.006690355784572425,
                0.03000148889913439,
                -0.0664151043640945,
                -0.15727483625757138,
                -0.1575550434562351,
                -0.11547429618572859,
                0.029795160588416872,
                0.018550714140455154,
                0.06060710455774858,
                0.010772483465681599,
                0.009192166114490384,
                0.033632363375264755,
                -0.0503948756915069,
                -0.03063794218384559,
                -0.021501948564854496,
                -0.006054088361832379,
                -0.040501716372929195,
                0.008574370369627264,
                -0.03243540121399314,
                -0.030164486303811806,
                -0.10608178199655247,
                -0.08564829152093938,
                -0.133207058016374,
                -0.11361511834478706,
                -0.03358280680223178,
                -0.08505154972886175,
                -0.2075063443175308,
                -0.17034859601362115,
                -0.09773637693150884,
                -0.0865095046138806,
                -0.1290597103573354,
                -0.13108799091885212,
                -0.04994136437280008,
                -0.04377634477605486,
                0.033295304860902236,
                -0.006945454910635297,
                0.04299789192874027,
                -0.0030733666126371963,
                -0.028692417066930966,
                0.0014773363788883678,
                0.014545888044720977,
                -0.018241367965993315,
                -0.039718557217870695,
                -0.004357293123368147,
                -0.0012427663700366356,
                0.0270360845537941,
                -0.04383769082238977,
                0.01695297548676892,
                -0.03796198088280385,
                0.011080520057765513,
                -0.028040417251960232,
                0.06506491283825418,
                0.0375242670680535,
                -0.01853875968039835,
                -0.0075481426518801435,
                0.03176166758450194,
                0.017368142508464492,
                -0.04657366458972309,
                -0.058320257690572065,
                -0.034957725921055095,
                -0.0034200222664777916,
                -0.05005547410145852,
                -0.005866285995068369,
                -0.0025370106000966244,
                -0.006476793553895195,
                -0.01932848138761264,
                0.046158071337736604,
                0.0167690613852998
            ],
            [
                0.0015753576500294325,
                -0.013521214018383833,
                -0.013009453704796892,
                -0.022891734710865492,
                0.004744005287484011,
                0.035773240407361274,
                -0.04654759675724654,
                0.025384929442924177,
                0.02866448141931783,
                -0.010634481367712667,
                0.024626942739276965,
                -0.011183694573153033,
                -0.018332997770991177,
                -0.025240019538460504,
                0.03156558641240584,
                -0.0475334345968687,
                -0.02635511009301728,
                -0.020065612458562816,
                0.0108723489791554,
                -0.007493559608072332,
                0.016471702489391622,
                -0.03605624064625312,
                -0.015813553364160453,
                0.002960779186988817,
                0.012380987356790059,
                -0.023273844544482006,
                -0.024125461161795182,
                -0.0458221377427603,
                0.03259868313974213,
                -0.047684624654899865,
                -0.014078016617419281,
                -0.0323343394858375,
                0.00017635457818690765,
                0.04855686817404204,
                -0.006922720454371346,
                0.010533095660860277,
                0.010145145389388363,
                -0.04355281934115744,
                0.02589725910899185,
                0.03632695638079213,
                0.03360346561210567,
                -0.02735427908837553,
                -0.016451915061735385,
                -0.021185552553254584,
                -0.011952707834265164,
                -0.04612445962760826,
                0.02674449628630685,
                -0.05200039975153351,
                -0.034807287828181155,
                0.0188367914457456,
                -0.027368354495882874,
                0.03524061943787702,
                0.010265741865792856,
                0.025583189626880658,
                -0.027697489237375233,
                0.02539331575204421,
                0.033946493164660106,
                0.00424439350283469,
                -0.04773971692807256,
                -0.016495920864620796,
                0.008880336665115805,
                0.04419198610370482,
                -0.02742422953587782,
                -0.045285159126434424,
                -0.002611328015300471,
                -0.011267580231071947,
                -0.005999862567104793,
                0.04741478636646709,
                -0.05136749988455793,
                0.0385029090657166,
                -0.10538015585108719,
                -0.06754978788072176,
                -0.016325526420492027,
                -0.03724839243705895,
                -0.056525612358692634,
                0.0037144926958146292,
                -0.04410539229139147,
                0.00939616679545494,
                0.0017009411776275892,
                -0.013354720878329446,
                0.0507284990918169,
                0.017787175650332207,
                0.02600848266961902,
                -0.04831873444792194,
                0.011028066853542497,
                0.04497097748456084,
                -0.026071426918585487,
                -0.023375036946381666,
                0.033197648367372726,
                0.041897004992287434,
                -0.012376925216966305,
                0.012065811791619438,
                0.04353239435488823,
                -0.05192578020749599,
                0.022416054646128218,
                0.034342218847633166,
                -0.045462318226453594,
                -0.1267232900451053,
                -0.09766688956186537,
                -0.19104083155740215,
                -0.08902502091674998,
                -0.10548229532238473,
                -0.1891249619385523,
                -0.14873464538143266,
                -0.16535097662459564,
                -0.19078006829398253,
                -0.1525183472308137,
                -0.05205177144918665,
                -0.057451623143276696,
                -0.009539718690084315,
                -0.007043893786975112,
                -0.037412859407640255,
                -0.046335055595687895,
                -0.04998704863551885,
                -0.014508502970615905,
                -0.026246157868970225,
                -0.014182834424762956,
                0.023222799694535775,
                -0.062422778045116895,
                -0.01603445283626778,
                0.007129500568035062,
                -0.06503840041041414,
                -0.04460009560960329,
                0.0011545464393933956,
                0.09789920549596601,
                0.0509175630186216,
                -0.03311336314361574,
                -0.014973793315031741,
                0.12830293908759707,
                0.10346302866560542,
                -0.06421386421570963,
                -0.08965721716656308,
                -0.08254099462497215,
                -0.17995721609986798,
                -0.1725861393761486,
                -0.03441705704084632,
                -0.012392097253547934,
                -0.012978215058919189,
                0.03935495487863512,
                0.03775590129685494,
                -0.018448037432987036,
                0.009918942704845737,
                -0.010403299675356909,
                -0.05421717909859947,
                -0.05684108688571911,
                -0.026117035045295188,
                -0.06812715963476115,
                -0.0014639471761142457,
                -6.678733468261641e-05,
                -0.03758450264999137,
                -0.1242569451730226,
                -0.15523537713033644,
                -0.008966098293094766,
                -0.0009773581214120297,
                0.27278029642381785,
                0.13008462648141675,
                0.002931428413214082,
                0.27187998868554,
                0.11946931372774856,
                -0.0001493167011350657,
                0.08873508689796374,
                -0.07871637261542373,
                -0.11059260052438875,
                -0.0032935889989144426,
                -0.05264004369573205,
                0.04539927513222508,
                -0.035511614615636296,
                0.010686029236617513,
                -0.03506370682410713,
                0.04811281978067846,
                0.017617669906150078,
                -0.07365504516523097,
                -0.1314023945814075,
                -0.0727197341917124,
                0.05393426366925006,
                0.062120737766449476,
                0.10788764013960449,
                0.0942640460645491,
                0.04137321298671852,
                -0.07522423492335399,
                -0.0918542519761393,
                -0.11552477039164448,
                -0.05547644680599433,
                0.06759969564614815,
                0.11807805158542448,
                0.24957148398209153,
                0.07940923242382945,
                0.16166116213331597,
                0.28326369779326777,
                0.13292231750055836,
                0.03989024459563006,
                -0.0231504034203309,
                -0.00842694080167091,
                -0.0030319128351411445,
                -0.009927019748016382,
                -0.035765832489198165,
                0.01805109643908406,
                0.044587925336421586,
                -0.01685864127523948,
                0.032653616044125824,
                -0.041810177742890225,
                0.023784769505327083,
                0.18332605622363832,
                0.19949354230388092,
                0.10015151438649211,
                0.0656229160423498,
                0.019725329679062695,
                0.10428427604240668,
                -0.0518987014360234,
                -0.14913567066394434,
                -0.09561653193061119,
                0.0724158487479265,
                -0.023848278674661008,
                0.050208494664853325,
                0.2443359781654264,
                -7.090732982100332e-05,
                0.04713766835243567,
                0.15173739150282256,
                0.061262614769574474,
                0.13467879913253947,
                0.16457113358765899,
                0.08029822982073749,
                0.03517175426694375,
                -0.004392596067370517,
                0.048323055849096186,
                0.04243360341984271,
                0.0656098921230521,
                0.005323811940141769,
                0.07195129773222123,
                0.06403580825561526,
                0.13936572000529765,
                0.19783402541058123,
                0.14403636740264825,
                0.12758327755479978,
                0.2228338415246701,
                0.27561487112471583,
                0.2521708509494693,
                0.1811184531707808,
                -0.02760992828867319,
                -0.03771495676135731,
                0.2346749063825837,
                0.12808398326300852,
                0.09564175310645232,
                -0.03235447846563821,
                0.22565669027486587,
                0.17467973940872908,
                0.2249305162742152,
                0.3494066145574236,
                0.18974334367979306,
                0.018284010284532068,
                -0.012884092109026022,
                -0.0030592265603409012,
                -0.024750694356702775,
                0.04948482780736043,
                -0.004572367643708007,
                0.1063264283666836,
                0.12090858343607333,
                0.0998155683909423,
                0.017657785387586947,
                0.09291537119105611,
                0.06379523916218159,
                0.1342576859956949,
                0.31747455507462685,
                0.3153845121793671,
                0.4373162670776227,
                0.36237918756083054,
                0.26703769865893145,
                -0.030393122786167473,
                0.09599602654515958,
                0.29099105883018284,
                0.16641044014200188,
                0.22530994009837935,
                0.10885456833215833,
                0.16061941500977903,
                0.17045126513445152,
                0.34469609741758805,
                0.19873736481530374,
                -0.008439916741634267,
                0.0435637701561006,
                0.037161551292705874,
                -0.027249344039600894,
                0.017550677317921547,
                0.10975857764476875,
                0.15998004277299913,
                0.1924028778235333,
                0.17300579436830915,
                0.07508803404962527,
                0.024329196628128134,
                0.04782866073463171,
                0.1781849723748638,
                0.0856098706847489,
                0.09580117005599097,
                0.18797281915137345,
                0.514390650695935,
                0.30935035511480147,
                -0.10404285920339763,
                0.12054737683675316,
                0.20097602050463675,
                0.1386905708794381,
                0.1671300644299118,
                0.3805521163046299,
                0.3144464541808604,
                0.3149663251397128,
                0.27089766535217935,
                0.19501622546145175,
                -0.008680904668971102,
                0.019621174266200404,
                0.04243612409117615,
                0.027654828525020828,
                0.0652253506068321,
                0.13038534482486322,
                0.18810893092287936,
                0.12444626751921721,
                0.11532520338624284,
                0.2200249603243989,
                0.09536698444425779,
                -0.01915005712949329,
                0.06007897240525547,
                0.06512758469702094,
                0.12157452011702295,
                0.19606753978308072,
                0.3425928711671719,
                0.06588098134669496,
                -0.24681738151791918,
                -0.08982169188733316,
                -0.034205990573913596,
                0.07912424092621821,
                0.08806360791096755,
                0.2421166687908091,
                0.2866385513456129,
                0.3050755002628283,
                0.21018697959642257,
                0.1321365239370222,
                -0.0363701680996795,
                0.05283581193803515,
                -0.02063120999586707,
                -0.02718089739991736,
                -0.00436353188801184,
                0.09925174486131305,
                0.17690208450215175,
                0.0467701920957926,
                0.103466792135792,
                0.11461907057582327,
                0.04973554295393398,
                0.10127770180458288,
                0.020731213206434448,
                0.021799083294869917,
                0.05495886146252564,
                -0.10790733229351794,
                -0.09229164648159596,
                -0.16196174331924454,
                -0.07674764519492817,
                -0.17269208128067104,
                0.15354245364914426,
                -0.05481565412346667,
                -0.0434480414261778,
                0.17935554498613812,
                0.09600281909183479,
                0.2650827820136132,
                0.2514126962600472,
                0.17972919662052642,
                -0.004177035694058961,
                0.04646889895524976,
                0.0003332171151999598,
                -0.03143777434964208,
                0.016298212111594348,
                0.08988820059163746,
                0.09253720891798829,
                -0.046177206125389475,
                0.08109662387622855,
                0.11384932457303898,
                -0.025586340590109318,
                -0.04973946138789135,
                -0.04407828540856018,
                -0.1269822324871636,
                -0.11056920890861131,
                -0.23094878634868357,
                -0.2911870639145233,
                -0.38268864907343886,
                -0.2810547138724191,
                -0.18476292918616957,
                -0.1386374251858331,
                -0.19876573016947355,
                -0.19605058396630515,
                -0.07688225087560581,
                -0.052681411966133844,
                0.03855272232900138,
                0.2104091092881959,
                0.16195667614198112,
                0.04944303767039069,
                0.0012358020000269288,
                0.03855606951840259,
                -0.01769157339932136,
                0.043840244368590395,
                0.04601433057797485,
                0.028989662129688464,
                0.019472745725626905,
                0.17293692584045606,
                0.008479335816265641,
                -0.008755100765175453,
                -0.020592299802793375,
                -0.16690708567102883,
                -0.11376945563997207,
                -0.15168445728827148,
                -0.3827247720294173,
                -0.15451074175591972,
                -0.1560750797908289,
                -0.049751068028087604,
                -0.10826549088610175,
                -0.05953548524202926,
                -0.16057068275477526,
                -0.18583760148943268,
                0.055421905139675376,
                -0.0030165198149610666,
                0.021065099594201667,
                0.16685235654239594,
                0.09862349780226358,
                0.06451465953947437,
                0.015623465489526584,
                -0.03591087857709311,
                0.017836107741911765,
                -0.03502644274458742,
                0.04593460862167514,
                -0.0524658407973797,
                0.0852618537197004,
                0.06701113190036888,
                -0.16032531795898444,
                -0.15201326847188135,
                -0.16123645554682536,
                -0.14471966913506323,
                -0.13169958627118347,
                -0.44913683890395456,
                -0.33012845505199695,
                -0.1739822953048081,
                -0.37332201142309546,
                -0.13803472148421847,
                -0.2799866104780899,
                -0.1733786506706798,
                -0.08302676044856035,
                -0.10883029351240897,
                0.09063198651582015,
                -0.0061720178949622945,
                -0.017406995358002265,
                0.09130328906179436,
                0.11732363738060073,
                0.1540197440411143,
                0.055930535261854285,
                -0.017472399579218537,
                0.026406319212342013,
                0.04649077485639308,
                -0.047948498065486074,
                -0.04667765732247665,
                0.006023135802682529,
                0.0026834874271995405,
                -0.09614463808304116,
                -0.14540717864098054,
                -0.1426814986331416,
                -0.09360687955863563,
                -0.18444571997416714,
                -0.24652174883635017,
                -0.01929929487500891,
                -0.2723099474612257,
                -0.2994217100994259,
                -0.11179725043388686,
                -0.13246399661590955,
                0.11756629622577232,
                0.03784927709805509,
                0.05059176847944894,
                0.044034056136354416,
                0.09638372257169218,
                0.01622052081806766,
                0.15604471871032885,
                0.13991549469906986,
                0.07820933010998239,
                0.0653239930879009,
                0.016648304027175834,
                -0.02694369962642536,
                0.0006269186671429086,
                -0.041484260402016644,
                -0.028537467782007518,
                -0.05638822226936046,
                0.042652477827871856,
                -0.009092627545194793,
                -0.1989734585625661,
                -0.19248943928640477,
                0.07382531988428045,
                0.1281161118430754,
                0.041953117375633155,
                -0.04416695254637807,
                -0.24676441253590156,
                -0.16567594785954912,
                -0.0905732999057334,
                0.10880899973008623,
                0.1744485324431983,
                0.06324491665648238,
                0.122487520851629,
                0.16974515390783007,
                -0.024620134852332522,
                0.02912027628471167,
                0.007754512606126205,
                0.21802544675119512,
                0.1640948405164454,
                -0.032697266752058474,
                0.03390945580007655,
                -0.03231795167793734,
                -0.036868282308060205,
                -0.041592235574922046,
                -0.15880817886846893,
                -0.011319215860618539,
                0.022189907400739842,
                -0.07096893288311135,
                -0.046416048998666026,
                -0.13934507282904193,
                0.062251892150879055,
                0.01508010221036108,
                0.0604500901851007,
                -0.19573599435189246,
                -0.12347402443903738,
                -0.18948577229526883,
                0.00592797700333424,
                -0.041780121557150864,
                0.0782640486527654,
                -0.053388751356812175,
                -0.022256446504226073,
                -0.06021385116440266,
                0.07164216915905534,
                0.19667826367161753,
                0.22216137558129792,
                0.27518969672383886,
                0.10692565383877779,
                0.00940596949017729,
                0.0314319637635572,
                -0.030130849359044837,
                0.018687824826054557,
                -0.02587463322295044,
                -0.10671858960875055,
                0.01267732905152127,
                0.16687180361392953,
                0.0939047114163115,
                0.04832704109237002,
                0.18710050346423762,
                -0.006113516722067074,
                0.004583731102956132,
                -0.028709549970812032,
                -0.07724973252511415,
                -0.10779227878308835,
                -0.014985913898892849,
                0.0030721940681513777,
                -0.010702243501749609,
                -0.014404454396642164,
                0.07670726361998068,
                -0.016969789261452636,
                -0.16784988516063318,
                0.019411802830918378,
                0.11305425974158984,
                0.24150578406136686,
                0.21515861577675058,
                0.058533096337422846,
                0.038135185577253435,
                0.0037092392568018576,
                0.021341994819022804,
                0.002521880493249105,
                0.020963477690290347,
                -0.08024908481941245,
                -0.037784170396030485,
                0.13211851858660356,
                0.14987124700936816,
                0.1422117369014876,
                0.12598052345739674,
                0.2345695341306462,
                0.24855807738017538,
                0.0657472984842432,
                0.17609897446285425,
                0.07289169428263778,
                -0.07845126867872379,
                0.019848130048422497,
                -0.02776250783290873,
                -0.024167597014009345,
                -0.026231945500002015,
                0.016637818618001936,
                -0.12083868316632838,
                -0.0349270635972241,
                0.14797823909469385,
                0.20926726920517078,
                0.10631663139823266,
                0.07115477192983684,
                0.047405741112502404,
                -0.024480545129042578,
                0.024334286992530655,
                -0.032611685827538095,
                -0.0049919654398377245,
                -0.07136064146343249,
                -0.08243782444352298,
                0.03746662226418421,
                0.14251235372005733,
                0.15230251470058115,
                0.022327821288507473,
                0.07735566771002414,
                0.10874329505283187,
                0.145470802285125,
                0.01447630169301106,
                -0.029239854199069108,
                -0.05896936158431486,
                -0.06247245231922537,
                -0.12038748434886536,
                0.031006565689513745,
                0.060744518892710375,
                -0.11426160665370391,
                -0.09258083291814344,
                -0.06430373376369197,
                0.03615027718270001,
                0.015718073861625725,
                0.07045579370590524,
                -0.03219395767551833,
                -0.00981949575497507,
                -0.038715630016163044,
                -0.031183130651045977,
                0.029244678595948616,
                -0.0073325111713391355,
                -0.005025975927195191,
                -0.08309638061074635,
                -0.08887761965215629,
                0.06043710792063227,
                0.06789546343942991,
                0.17181310006336825,
                0.07051053908645391,
                0.015503194159688215,
                0.1084091037671358,
                0.14617857539065288,
                0.46990136751347233,
                0.11965535690865782,
                0.1027647824234033,
                0.008870759595758494,
                -0.004871749428723907,
                0.10143131961521278,
                -0.06778377283714593,
                -0.010323149148090866,
                -0.14359244298558704,
                -0.08502093303456854,
                0.013878524979074032,
                0.06057304436675128,
                0.030328438650757544,
                -0.029276473380250932,
                0.006253982593840687,
                0.04246568144211257,
                -0.026834995581018338,
                -0.042784084663238665,
                -0.018999424710931776,
                -0.012243081204111229,
                -0.14936507939738328,
                -0.10020927327037937,
                0.05845051228098717,
                0.017442586888229732,
                -0.010452359582360973,
                0.14520641974939422,
                0.2989442099029216,
                0.10131069666279995,
                0.35538374707738724,
                0.4938676242623283,
                0.2925471860531622,
                0.09815828368465743,
                0.056940852385481536,
                0.011989121715231959,
                -0.044597165858468804,
                -0.05519137708081443,
                -0.20055960041762755,
                -0.05974467404445268,
                0.027076272857260046,
                0.0061300977655772875,
                0.035538140943134996,
                0.005023913933665919,
                -0.005405974140157373,
                -0.004856249187059833,
                0.04668114608526094,
                -0.019420866235813728,
                0.04312796274415043,
                0.06110843559554144,
                -0.014075158580679512,
                -0.07235797405156233,
                -0.1358922032741689,
                -0.10764660784245164,
                -0.015486424874528323,
                -0.009195982154583369,
                -0.010108307572222506,
                0.0985002304431592,
                0.01809384386819351,
                -0.005123853132813919,
                0.17818019296252782,
                0.2469978086756314,
                0.19592945775706314,
                0.11632461276002101,
                0.044391865497702875,
                -0.12387665281631466,
                -0.15309500630906397,
                -0.14159646313701668,
                -0.014253466434697647,
                0.00659319209331724,
                0.017754770049255936,
                0.021086841090618487,
                -0.032686640739013964,
                0.04229711198240523,
                0.00784953759885662,
                -0.01241677495092078,
                -0.013278843227153945,
                0.05519416546459619,
                0.03939331544716519,
                0.0072207775240635255,
                -0.08485208944795385,
                -0.11582875189127832,
                0.06851208362528566,
                0.15704158041442057,
                0.11949493077064131,
                0.05064757108783149,
                0.06564639517598847,
                0.10145851004529917,
                0.23685429283566445,
                0.1516156963111897,
                0.13318203981609447,
                0.16756084129630067,
                0.0930811299254851,
                -0.09850309715383622,
                -0.06775678438055042,
                -0.05145655455320204,
                -0.061311725776498474,
                -0.011225400699697803,
                -0.0435053177264738,
                0.044397779591068255,
                -0.009580180032346695,
                -0.030253905202764376,
                -0.015777164989351063,
                -0.030729948168266148,
                -0.024871328854832432,
                -0.0002422455448230827,
                -0.064996474995671,
                -0.042265793159410966,
                -0.04409676195140921,
                -0.04012883327556089,
                -0.04644400588814132,
                -0.05456070083643726,
                0.06400916974558031,
                0.036353861378753405,
                -0.025081339941924605,
                -0.0611676618089171,
                0.0009708858637601313,
                0.014702783882209266,
                0.029530690208505166,
                0.1311685662406968,
                0.021416757249662036,
                -0.019130764363966036,
                -0.027428659468740534,
                -0.03824869467323332,
                0.008279379342736128,
                0.03802044240745384,
                -0.003852843951082649,
                0.002350192720352501,
                -0.0325481381943975,
                -0.038272811887122754,
                0.011500368479299791,
                0.02186072378431913,
                -0.021465401088348074,
                -5.141021215276652e-05,
                0.04661304564802169,
                -0.04646009372645989,
                -0.0250129385137056,
                -0.03600901258271309,
                0.03899407983168785,
                0.05435793442680369,
                -0.04329883030414604,
                0.006390065588925828,
                -0.013583503698100389,
                -0.011187014213580117,
                0.023031343693778992,
                0.007893640895111775,
                0.04801621384179796,
                0.03911315190518301,
                0.019461893701942706,
                -0.03651560388553198,
                0.013941147123644044,
                0.023022747116064314,
                0.04357588904986411,
                -0.03786517041927393,
                0.023946721097122946,
                0.004701251836255596,
                -0.004310310070505481
            ],
            [
                0.010836463085579402,
                -0.04012786102812467,
                -0.00816643672945326,
                0.05007025104602505,
                0.027027159345361394,
                0.026524623397812593,
                0.04264926017794376,
                0.023171431278072828,
                0.03515176189684454,
                -0.009992083836967577,
                -0.010086912997315962,
                0.04616718664662669,
                0.025804715358348138,
                -0.0027162696073645587,
                -0.00034701361145642387,
                -0.04880237898493002,
                -0.027301029959102965,
                -0.0028989169845416787,
                -0.02082947251311942,
                0.04867077486286949,
                -0.038838120884666295,
                0.000561442260091409,
                -0.04950630346545219,
                -0.0229791135433739,
                -0.027836686071201336,
                0.010615625260298273,
                0.03911502028958238,
                0.00671180683799423,
                0.014556555325805819,
                -0.02223109518904748,
                -0.019307400265602116,
                -0.0001004862626414818,
                0.0069220169531134974,
                0.0046694839247001275,
                -0.024240347900851365,
                -0.036096422099827094,
                -0.014639035759193553,
                0.027604203065114324,
                0.007880675828136108,
                -0.03403207337045346,
                -0.028159232539183936,
                0.03927051478927072,
                0.0006531599153639656,
                0.06384284630274005,
                0.05388879015083714,
                -0.014053483379492316,
                -0.050840650362712674,
                0.022809129205036353,
                -0.0023097774353592997,
                0.03766608356073108,
                -0.033519316911253316,
                -0.025935914187733677,
                -0.002864617277800831,
                -0.03679220058004024,
                -0.014108396518940025,
                -0.04893545408722755,
                0.030484426816685582,
                -0.0403349783360885,
                0.009683114733800555,
                -0.024018264064002506,
                -0.04830307017031897,
                -0.03948915821517782,
                0.020088463861916896,
                0.0383416425720746,
                -0.0627112880093082,
                -0.06350563757080147,
                -0.02539662933567592,
                0.04931116833703409,
                -0.021444435317592984,
                0.014394637166446702,
                0.0047068458889372704,
                0.08409998500777599,
                0.05496362237482089,
                -0.00618322259061954,
                -0.0473015612142133,
                -0.047360519634304946,
                -0.008254021930930883,
                0.018426132734285425,
                -0.0597941494033363,
                0.0238501523101132,
                0.022689914363382732,
                0.03535115815457046,
                0.03931517449589012,
                0.03873182026405184,
                0.040498622023147,
                0.048558521711656956,
                -0.015408773817630823,
                0.043720440963313005,
                0.045488413124318755,
                0.028354720653167825,
                0.025440478219505486,
                0.014371502620661367,
                0.003038247323721425,
                -0.062115568494896245,
                -0.03093004374370881,
                0.02506707173323113,
                0.1794334049350378,
                0.10606985405357834,
                0.08358209704437453,
                0.02729630830607594,
                -0.13452587275338837,
                -0.05477953283006995,
                -0.005147532497247729,
                -0.07888015231176516,
                0.02732781576664007,
                0.020773858840277843,
                -0.011191827660323889,
                -0.015314046700810748,
                -0.03792922254067338,
                0.010639370145430534,
                -0.033758951938370425,
                0.021875290556877806,
                0.007619864340784634,
                -0.002855499525283945,
                0.03223148369780152,
                0.053657120673303756,
                -0.02704702748554843,
                0.03317455196479426,
                0.06495903516292925,
                0.041885271785312886,
                0.07301537442619845,
                0.0026024757950450297,
                0.018395317931334903,
                0.12291075585508257,
                0.07618666441079343,
                0.10618729671795155,
                0.08386465227891005,
                0.2070829990446734,
                0.033945335316474375,
                -0.07928684133904826,
                0.16672414680399095,
                0.08611727671048512,
                0.033522200856118504,
                0.03668307310817986,
                0.06927281031905005,
                0.05144271347946202,
                0.1393254969844574,
                -0.009501190976417665,
                0.054538384975993115,
                0.043688449046079464,
                -0.01563010593449446,
                -0.04873493527845747,
                -0.013345342103248886,
                -0.0019520890557872925,
                0.026053356677558853,
                0.15324978682659737,
                0.1987115353538505,
                0.1788022013873356,
                0.09745228451214118,
                0.005672073306456623,
                0.015048331166559322,
                0.01720109957121364,
                -0.12177596086880045,
                -0.013607268625126036,
                -0.03542756878967843,
                0.1807261962888843,
                0.20581991162578364,
                -0.12281489031444753,
                0.0847173653309051,
                0.08170890065933774,
                -0.010551903093587011,
                0.08671591320404702,
                0.0539894764053002,
                0.01798560315992669,
                0.1321796215116584,
                0.024168247384051017,
                0.04734394423130609,
                0.03054926655868297,
                -0.02311374188233592,
                -0.027099743905602033,
                -0.03006931890123547,
                0.05714084377633437,
                0.18012105137171702,
                0.16222622723029065,
                0.17431077555668842,
                0.09735001314208659,
                0.0973592568934426,
                0.03253089039594267,
                0.10638362265343329,
                0.10743802322732719,
                -0.01449601736035797,
                0.16888779136345058,
                0.09908652398131204,
                -0.009945158473410742,
                0.07245307391188253,
                0.08548018594834322,
                0.05041755732323758,
                -0.0028584367857660193,
                0.018797773086040373,
                0.007305506782752879,
                -0.150147290480515,
                -0.04673868623850427,
                0.08709946527378529,
                0.03862544717115131,
                0.03739355685432022,
                -0.016814558999094578,
                0.011590264530181455,
                -0.013522987049475,
                -0.0011026743166001032,
                0.03935430536978257,
                0.2062714018788119,
                0.22353208500634733,
                0.20471452602285203,
                0.040752891938331495,
                -0.008791777123075363,
                -0.020261727040359674,
                0.030317882945048617,
                -0.06296084068793346,
                0.21674287506073717,
                0.08959991206116205,
                0.06481754734463982,
                0.04981677721795747,
                -0.008597888915915957,
                0.11036719469193393,
                -0.04834862780252348,
                0.05024155819451773,
                0.07655553399061787,
                -0.018302352194108074,
                -0.09747779246129173,
                -0.15974511041326597,
                0.051537971269069394,
                0.034348743798718495,
                0.015166434304939861,
                -0.001558880757401567,
                -0.028345421152099207,
                0.044714204080730714,
                -0.015215388216777233,
                0.09945935911500206,
                0.18060988243120252,
                0.10628592514550467,
                0.05625626508346785,
                -0.03166752854206029,
                0.029128914241392672,
                -0.016322442774577384,
                -0.10605314740102735,
                -0.06754483429248502,
                0.15677840242524563,
                0.08092665108125156,
                0.19878340819452978,
                0.20315313906161686,
                -0.01727380733182933,
                0.12092570493385346,
                0.009268895786781486,
                0.04906773227195632,
                0.010566247233231798,
                0.04316665387421089,
                0.03590321434396891,
                -0.1769829087640079,
                -0.01363436480129841,
                0.1124588068944168,
                0.0402689386172528,
                0.03862346952389318,
                0.0026483566123021132,
                0.03865697304014616,
                -0.022263962359171,
                0.09535643701410298,
                0.10844389884337348,
                -0.046322396542262945,
                0.0580474491573864,
                0.005186666241689742,
                -0.12060813803209589,
                -0.060713575001522045,
                -0.1775820528262758,
                -0.2606523963511336,
                -0.07912994268709489,
                0.14623642075768153,
                0.21971236291900526,
                0.19777868424701756,
                0.03790698993217761,
                0.008183112171533249,
                0.04133400088298558,
                -0.03668875504380137,
                -0.056970623010937214,
                0.07170219888244776,
                0.04089491088672207,
                -0.12692293864606968,
                0.052486810082106365,
                0.09122342547876752,
                0.06400773757422444,
                -0.003736613770062305,
                -0.0006832273251756673,
                0.013846143694404543,
                -0.020801052638747944,
                0.17009595635896965,
                0.06312366573521014,
                0.0072895019256536235,
                0.0002735211865548268,
                -0.060681679539776844,
                -0.17442503087999892,
